tree
version=v4
num_class=1
num_tree_per_iteration=1
label_index=0
max_feature_idx=11
objective=regression
feature_names=store_id product_id city_id dow hour discount avg_temperature avg_humidity precpt avg_wind_level holiday_flag activity_flag
feature_infos=-1:235:18:182:263:145:847:343:118:555:151:1:154:196:212:843:556:183:229:311:134:812:554:431:305:704:300:557:60:46:781:434:167:255:420:822:446:521:197:740:211:242:181:202:214:131:577:750:307:188:200:194:621:96:204:409:758:237:817:517:722:593:586:20:147:191:471:81:168:417:875:216:312:602:29:438:531:91:284:137:678:314:160:815:53:406:535:872:647:411:34:173:628:215:449:714:201:184:386:84:532:578:790:309:658:378:253:890:648:74:140:3:58:198:441:189:288:562:234:439:713:148:540:671:162:193:599:699:45:291:371:435:100:885:382:149:153:395:829:481:468:157:640:172:461:95:442:530:552:174:152:494:567:190:195:209:144:537:115:254:128:679:241:564:850:896:238:806:187:457:805:282:283:178:780:357:799:2:236:487:596:57:126:500:551:707:877:156:250:179:239:452:522:741:256:135:217:271:405:335:595:488:119:503:273:684:166:348:308:581:702:23:259:436:561:672:61:62:541:301:320:424:597:897:132:302:493:476:109:876:78:59:142:363:231:276:55:77:536:692:404:180:502:856:146:333:11:24:893:170:851:176:383:585:757:544:565:510:104:129:213:426:607:186:883:295:370:19:35:298:355:423:543:572:744:367:161:93:274:112:169:373:41:467:257:281:429:8:469:549:265:368:460:171:192:222:226:573:0:177:246:16:402:64:121:233:294:163:221:230:394:418:150:462:143:827:9:17:482:6:489:225:523:569:736:353:458:490:159:664:477:232:478:583:662:455:545:756:860:358:534:666:258:635:479:625:297:473:654:612:837:667:75:130:289:40:278:483:219:379:506:22:410:620:525:67:247:286:414:447:698:249:279:98:533:158:388:240:450:474:155:203:269:548:571:579:427:56:743:275:303:324:709:475:515:570:669:199:261:262:651:742:398:498:600:580:323:421:734:624:12:361:514:472:497:746:293:366:113:376:454:894:731:266:317:480:512:542:87:124:243:325:359:505:891:470:94:319:681:102:210:425:437:508:513:765:772:33:103:68:76:285:384:397:101:430:360:264:538:650:712:753:784:165:313:346:800:867:511:813:492:336:451:735:80:485:550:21:52:576:381:484:634:627:675:228:207:616:892:25:419:369:495:90:268:385:546:245:563:777:737:164:175:422:444:251:372:499:5:821:69:260:340:610:613:630:206:387:830:28:43:122:364:466:645:4:107:139:566:218:350:66:501:507:519:7:362:389:527:598:687:603:858:865:328:632:636:315:374:708:727:227:729:42:133:605:749:771:895:413:529:559:670:496:50:185:881:97:208:296:304:518:539:608:695:54:224:327:526:880:390:365:299:347:733:849:110:326:334:391:354:465:864:244:833:30:88:270:277:377:456:660:393:835:26:339:558:668:854:48:331:643:79:504:888:622:72:316:721:873:89:205:318:415:823:292:341:344:440:516:701:408:631:649:787:36:352:63:105:464:768:290:766:399:639:853:330:574:866:349:763:832:136:453:665:879:108:252:582:642:723:844:863:111:337:619:703:322:448:747:852:31:272:459:524:614:306:432:463:633:689:120:560:584:682:710:848:886:338:878:694:779:789:809:329:659:726:606:719:588:27:356:491:732:428:138:609:617:724:869:392:403:798:47:51:882:70:528:520:547:575:720:730:223:443:870:889:310:601:831:49:248:416:705:820:13:688:855:106:615:755:862:14:568:594:486:816:39:116:652:407:786:754:792:267:445:653:717:828:834:37:796:811:589:846:587:618:623:748:751:802:838:10:65:73:626:646:715:412:661:683:836:592:685:760:761:826:861:868:71:375:638:774:785:641:696:117:657:15:82:342:400:674:762:841:44:321:808:99:680:693:814:332:351:764:775:509:778:691:803:656:433:629:716:752:871:125:706:92:380:859:797:123:220:280:776:85:700:728:788:810:38:825:83:396:637:673:663:711:804:819:884:345 -1:4:580:215:631:596:122:638:6:740:291:381:190:834:554:117:41:127:11:635:118:600:76:810:422:300:70:387:116:296:26:207:775:486:104:191:634:699:715:500:194:802:363:345:108:843:835:783:489:201:774:666:129:769:290:650:578:115:23:71:467:411:93:259:644:292:140:481:763:21:19:250:77:136:223:793:691:99:150:419:796:351:764:670:672:370:310:119:166:426:90:240:58:293:253:567:473:806:343:496:549:686:220:212:79:694:645:295:688:768:12:797:200:682:847:683:515:822:719:74:599:218:114:132:144:222:219:525:416:272:396:633:18:38:135:213:452:620:535:216:50:193:110:17:145:16:67:728:221:258:521:309:45:112:804:374:306:84:836:559:716:441:214:386:476:531:864:829:37:261:684:858:210:765:267:27:379:257:707:738:548:845:689:63:468:415:424:321:478:439:860:294:94:556:579:547:80:729:60:316:73:628:181:656:458:749:461:758:392:731:522:339:503:403:247:317:44:332:662:414:302:772:1:315:402:235:206:831:841:244:491:254:92:569:629:217:83:592:100:677:746:120:447:655:2:286:121:425:512:188:420:20:717:853:393:536:470:530:65:320:138:824:249:607:301:480:109:456:581:636:757:340:430:589:344:541:705:577:224:64:560:7:125:487:151:157:792:760:791:366:314:350:280:319:177:269:373:53:176:816:474:546:460:377:304:494:448:830:678:367:848:404:565:587:598:276:333:429:856:133:143:737:284:510:605:28:31:195:102:184:385:479:205:563:72:523:14:126:591:654:54:704:776:130:588:399:608:407:449:475:583:228:354:663:542:815:146:187:779:226:305:507:820:69:233:394:243:62:285:313:9:97:826:839:368:610:147:437:627:642:287:357:335:630:861:380:499:182:183:469:739:167:558:434:622:342:573:657:211:359:362:356:397:784:832:330:369:78:209:246:55:255:0:364:427:508:639:66:179:673:82:88:196:465:647:303:606:153:192:770:855:123:590:833:155:3:266:537:585:712:446:595:668:725:105:111:346:857:141:142:423:534:649:756:825:164:229:262:553:632:706:30:348:34:355:413:561:526:734:766:238:273:698:718:851:22:61:227:488:506:256:268:625:685:260:283:318:615:619:693:789:450:453:484:5:29:134:198:410:570:692:307:311:520:651:653:265:389:517:752:819:270:435:462:497:539:614:664:759:103:338:533:611:641:676:751:799:48:98:472:87:169:185:251:640:733:741:771:149:242:275:278:322:323:490:584:602:674:711:780:154:241:264:395:442:471:661:795:156:297:353:409:511:529:597:25:139:231:398:502:540:613:675:777:669:687:202:405:505 -1:0:12:16:3:6:13:11:4:15:5:14:1:7:2:10:17:9 -1:4:5:0:1:6:3:2 -1:7:8:6:9:10:11:12:13:5:14:15:16:4:17:3:18:19:2:20:1:21:22:0:23 [0:1] [13.510000228881836:30.379999160766602] [27.350000381469727:92.680000305175781] [0:34.582801818847656] [0.97000002861022949:3.8499999046325684] [0:1] [0:1]
tree_sizes=3622 3816 4499 4318 4207 4518 4189 3992 5931 5883 4827 3913 3991 5798 5271 4787 4715 6478 3782 4804 3110 3979 4777 5646 5822 3091 3128 6267 6429 6112 4311 5499 6013 5224 3775 6020 6037 6038 5896 6998 5054 5535 5417 4868 4007 5987 6115 5947 5788 5061 5858 5914 5201 5755 5056 6098 5407 6037 3934 6004 5241 5624 7120 5551 5711 5449 5698 5691 4545 4777 5203 5239 5143 5360 5465 5467 6264 6741 6394 4224 5868 4777 4594 6137 5237 5973 5187 5527 5661 5385 5539 6228 4893 5747 3896 5234 7318 3800 5255 6259 5498 4912 6370 5051 5128 5596 5343 4831 4847 6822 4935 6119 5927 4960 5865 5537 4746 4977 5763 4741 5057 6034 4703 4004 5121 5203 5361 5975 5642 7151 4602 5292 5333 5119 5227 5115 6025 5847 5418 5336 5359 4596 5633 4855 5412 4215 5485 4953 5692 4340 3425 5522 5497 6421 5118 4774 5581 5807 5938 5477 5277 4565 2831 5152 5405 5327 5323 5458 4353 4500 5579 5264 5811 5915 5690 5309 6134 5385 4751 4470 6891 6474 5424 3996 5119 4801 4086 4932 4816 5374 5076 4242 5372 4685 4973 5562 5450 5632 5410 5827 5868 5437 4624 4452 5538 5665 6285 5040 5223 5930 5061 5482 4843 4638 6896 6367 4756 3414 5906 4951 4971 5136 4064 4986 4891 4744 5781 4121 5670 4900 6021 4604 5453 4922 4951 6332 4755 5409 4583 5431 5336 5602 4647 4692 4505 4846 6120 5003 5705 4931 5375 3924 3378 4703 3176 4961 5002 3156 5735 3277 6721 5152 5072 6504 5275 4792 4856 5714 5593 5442 5006 3281 6043 5066 4068 4245 3870 4748 5169 4176 5006 4709 4923 4853 4950 4692 4835 6124 4867 6412 3532 5237 3154 4798 4594 6632 4773 5020 4903 5484 5301 5321 5122 4975 5685 3858 3266 4866 5550 5094 4485 5299 4950 5359 5081 4879 4077 5206 5143 4867 6059 5632 5077 4751 3396 5023 5117 4811 5747 4584 5127 5778 3478 5647 5800 5092 4505 4812 4037 5990 4738 4648 4629 4814 5135 3459 5069 6046 4104 4419 4563 5201 4882 5554 4678 5411 4723 6080 3183 5723 4563 4805 5288 5050 5180 5330 4882 5281 4722 4855 4564 4376 5490 4845 5561 4885 5097 4587 4684 5228 4340 5136 5344 4995 4827 4986 3410 4833 4970 4473 4595 4827 6546 4719 5111 5136 3995 4852 5311 5164 5424 2999 5780 3935 4834 5522 4880 4990 4853 3678 5301 6406 4519 4824 3262 4715 4797 3236 4891 5190 5115 3698 3139 3196 6279 4161 4958 4675 5375 4342 4621 4554 5013 3471 3454 5325 6018 4674 5351 5308 6706 5127 5108 5143 4661 3013 4927 4653 4963 4682 3847 4743 5114 4982 4465 5083 4690 4905 4550 5709 5262 4726 4964 5126 5663 5596 4576 4792 4565 5151 4360 5730 5296 4682 5823 5229 5080 5311 4648 5326 6109 4810 5117 4740 5051 4832 4148 4997 4592 4460 4959 4964 5305 5468 4433 3082 5177

Tree=0
num_leaves=31
num_cat=22
split_feature=5 4 4 4 4 2 3 2 4 3 5 4 0 5 4 0 4 4 4 4 6 5 0 3 5 0 5 0 6 0
split_gain=58004 20967.3 14962.6 4370.21 3306.23 2220.53 1984.98 1796.62 1490.68 1052.77 652.107 641.841 634.26 582.213 487.244 474.288 430.291 430.171 336.658 331.512 331.438 293.91 270.772 232.923 209.449 153.976 152.21 149.057 146.41 141.721
threshold=1.0000000180025095e-35 0 1 2 3 4 5 6 7 8 0.76549997925758373 9 10 0.76549997925758373 11 12 13 14 15 16 19.82499980926514 0.79550001025199901 17 18 0.86248362064361583 19 0.71250000596046459 20 23.505000114440922 21
decision_type=2 1 1 1 1 9 1 9 1 1 2 1 9 2 1 9 1 1 1 1 2 2 9 1 2 9 2 9 2 9
left_child=2 4 16 5 6 12 11 18 26 14 -8 21 23 -6 28 -11 29 25 -5 -15 -17 -2 -19 -4 -13 -9 -3 -20 -7 -1
right_child=1 8 3 7 13 9 10 17 -10 15 -12 24 -14 19 -16 20 -18 22 27 -21 -22 -23 -24 -25 -26 -27 -28 -29 -30 -31
leaf_value=0.13439555390338806 0.068055961683112426 0.053599295025131263 0.26654764210238041 0.1530377197525313 0.056782612463185216 0.32248491271739838 0.059930230344010987 0.23192033914697213 0.048664527746384335 0.18955096245071579 0.055918375739243145 0.061418016597954331 0.14828277695983672 0.054854009323165011 0.26379344309184294 0.1826161244044559 0.058110339561285945 0.19913568697617184 0.12677031393154847 0.053366075209822297 0.25778581684307533 0.062146601218269697 0.15528484241967594 0.19389281536208802 0.057964337572807056 0.19008848834596725 0.05106356013735986 0.094991088088207443 0.38881155510010096 0.0867228311188038
leaf_weight=741 99171 255955 724 2546 852099 650 461554 1473 6399919 2136 3316120 241796 3538 2588278 1694 666 10200 1952 2776 3552687 4918 556240 7101 2017 641362 4688 3150008 3424 682 4237
leaf_count=741 99171 255955 724 2546 852099 650 461554 1473 6399919 2136 3316120 241796 3538 2588278 1694 666 10200 1952 2776 3552687 4918 556240 7101 2017 641362 4688 3150008 3424 682 4237
internal_value=0.0532716 0.0530138 0.154769 0.186165 0.0557621 0.225014 0.0576417 0.158501 0.049564 0.252877 0.0564085 0.0606695 0.177088 0.0543331 0.304443 0.232366 0.0698897 0.179342 0.122143 0.0539932 0.248471 0.0630406 0.16489 0.213789 0.0589098 0.200363 0.0512541 0.109315 0.354186 0.0939676
internal_weight=2.21714e+07 2.21152e+07 56163 40985 1.23093e+07 17025 5.31624e+06 23960 9.80588e+06 10746 3.77767e+06 1.53857e+06 6279 6.99306e+06 3026 7720 15178 15214 8746 6.14096e+06 5584 655411 9053 2741 883158 6161 3.40596e+06 6200 1332 4978
internal_count=22171352 22115189 56163 40985 12309307 17025 5316243 23960 9805882 10746 3777674 1538569 6279 6993064 3026 7720 15178 15214 8746 6140965 5584 655411 9053 2741 883158 6161 3405963 6200 1332 4978
cat_boundaries=0 1 2 3 4 5 6 7 8 9 10 36 37 65 66 67 68 69 98 99 127 151 180
cat_threshold=524160 14680191 100096 100096 24718 96 24718 3670080 96 1536 0 2 69924 0 288 0 0 0 1073741824 0 0 0 8388608 0 0 0 0 0 2304 2150105088 4136 23068672 67108866 16781312 0 1024 1536 1024 0 33587200 0 0 0 0 0 16781312 33816580 2147483654 0 0 16781312 32 0 67178496 0 33554432 3714 8388608 0 0 0 0 2147483648 5 269549633 2097216 1198080 1181696 149504 8390656 2147483648 0 4 0 0 0 0 0 16 0 8704 32 0 134316032 302256128 1073741824 65612 0 20971521 1946159104 0 0 0 0 0 65536 134217728 1 96 2048 2147483648 0 0 0 0 0 0 0 16 16384 8720 268435488 16777216 134250496 302841856 1073873152 12 0 88080384 603979776 8 0 0 0 0 3276800 32768 0 2 69942 0 288 0 0 0 1073741824 0 0 0 8388608 0 0 0 0 0 2304 3223846912 4136 23068672 67108864 4096 12582912 0 0 68 0 0 0 0 0 512 320 8704 0 536870912 134316032 33816576 1073741824 65600 0 4194817 1912604672 32768 0 0 0 0 0 134348800 1
is_linear=0
shrinkage=1


Tree=1
num_leaves=31
num_cat=27
split_feature=1 1 4 4 4 1 4 10 1 4 2 1 2 1 4 4 3 4 4 4 1 2 1 10 2 1 2 10 4 4
split_gain=48192.8 22137.3 16982.2 12339.9 8123.81 4836.45 3567.18 2797.12 2740.56 2434.82 1592.72 1579.65 1334.22 1115.5 1084.4 803.474 767.626 702.615 588.527 512.576 488.045 555.001 469.079 454.743 445.928 441.603 530.593 434.954 413.696 412.871
threshold=0 1 2 3 4 5 6 1.0000000180025095e-35 7 8 9 10 11 12 13 14 15 16 17 18 19 20 21 1.0000000180025095e-35 22 23 24 1.0000000180025095e-35 25 26
decision_type=9 9 1 1 1 9 1 2 9 1 9 9 9 9 1 1 1 1 1 1 9 9 9 2 9 9 9 2 1 1
left_child=3 2 5 -1 -3 7 10 11 18 20 27 24 -8 -10 22 -7 28 -15 -6 -13 21 -9 -4 -17 -2 26 -11 -5 -12 -29
right_child=1 4 14 6 8 15 12 9 13 25 16 19 -14 17 -16 23 -18 -19 -20 -21 -22 -23 -24 -25 -26 -27 -28 29 -30 -31
leaf_value=0.015239173376159057 0.00035167680742886041 -0.0038403402473697421 0.0092464373974796166 0.096925885116201441 0.0070669501299713547 0.0060145216312445567 0.064450736278976226 0.060124013481337113 0.0023328788284267886 0.036702236848989975 0.27087765736785485 0.027188489569691599 0.11450179994942747 0.00032054874145375227 -0.0030778661489754746 0.010297128518876073 0.16312698468692996 -0.00145857747616918 0.0024605243495756631 0.017872136345702488 0.037635681340020086 0.024693826216362503 0.0013738584562135044 0.01694907662688961 0.012794787176705803 0.02031167579501568 0.015496376775262184 0.20103059063933279 0.18780523749440911 0.10455504547149184
leaf_weight=14813 33685 7982344 102507 4055 619909 310542 8361 28570 1493487 43107 1320 120051 15211 4197541 736459 294019 7760 4711041 501986 116673 34551 5287 289221 157996 199025 118787 16315 978 1690 979
leaf_count=14813 33685 7982344 102507 4055 619909 310542 8361 28570 1493487 43107 1320 120051 15211 4197541 736459 294019 7760 4711041 501986 116673 34551 5287 289221 157996 199025 118787 16315 978 1690 979
internal_value=1.25972e-06 -0.000231646 0.00842342 0.093342 -0.0013883 0.0154737 0.122001 0.0213759 0.000310166 0.0299992 0.157342 0.0168461 0.0967835 -0.000196284 -0.000816767 0.00993127 0.180615 -0.00062029 0.00500587 0.0225977 0.0460387 0.0546003 0.00343413 0.012622 0.0109937 0.0238383 0.0308835 0.11542 0.225012 0.15433
internal_weight=2.21683e+07 2.21131e+07 2.6068e+06 55167 1.95063e+07 1.47861e+06 40354 716051 1.1524e+07 246617 16782 469434 23572 1.04021e+07 1.12819e+06 762557 10770 8.90858e+06 1.1219e+06 236724 68408 33857 391728 452015 232710 178209 59422 6012 3010 1957
internal_count=22168270 22113103 2606795 55167 19506308 1478608 40354 716051 11523964 246617 16782 469434 23572 10402069 1128187 762557 10770 8908582 1121895 236724 68408 33857 391728 452015 232710 178209 59422 6012 3010 1957
cat_boundaries=0 19 46 47 48 49 73 74 101 102 103 125 126 152 153 154 155 156 157 158 182 183 207 208 232 233 234 235
cat_threshold=0 0 0 0 0 0 0 0 2048 0 0 0 0 0 0 0 0 0 8192 1074266130 0 64 10486016 536920064 2181038080 8388608 0 16777216 606081024 0 0 536870912 0 0 64 301989889 4 16 0 0 1581056 0 9437184 0 0 4 524160 14680191 15728767 16 0 64 2097152 0 33554432 8388608 0 0 4096 0 0 536870912 0 0 0 268435456 4 0 0 0 1572864 0 1048576 100096 4194312 0 4224 1212416064 18 64 524352 8 0 1073741840 8396800 0 260 0 0 0 536872960 32 1064960 2048 67125248 0 0 0 268435584 0 8 1792 24710 16 0 0 0 0 0 8388608 0 0 0 0 0 0 0 0 0 0 4 0 0 0 1048576 24710 0 262656 335544320 68222976 0 268435456 2684354560 4194325 65536 4 0 671088640 0 2181040128 2 2 524800 0 16777216 8 0 0 0 16 2129922 1024 3670080 290944 96 231168 233216 231168 16 0 0 0 0 0 0 0 0 4096 0 0 0 0 0 0 268435456 0 0 0 0 524288 0 1048576 105585 1073741824 0 64 2097152 0 33554432 0 0 0 4096 0 0 536870912 0 0 0 268435456 4 0 0 0 1572864 0 1048576 8846 16 0 0 0 0 0 0 0 0 0 0 0 0 0 0 0 268435456 0 0 0 0 524288 0 1048576 118881 1536 1536
is_linear=0
shrinkage=0.1


Tree=2
num_leaves=31
num_cat=27
split_feature=1 1 4 4 4 1 4 10 1 4 0 1 0 4 1 4 4 10 2 0 0 4 4 4 0 10 4 1 1 2
split_gain=39145.8 17983.8 14036.5 10077.9 6455.57 4063.55 2585.24 2219.8 2080.68 2027.04 1843.72 1278.42 1040.3 881.235 779.521 695.996 664.33 637.258 616.292 599.449 581.839 576.843 511.756 455.294 431.678 426.937 414.945 406.192 363.236 382.941
threshold=0 1 2 3 4 5 6 1.0000000180025095e-35 7 8 9 10 11 12 13 14 15 1.0000000180025095e-35 16 17 18 19 20 21 22 1.0000000180025095e-35 23 24 25 26
decision_type=9 9 1 1 1 9 1 2 9 1 9 9 9 1 9 1 1 2 9 9 9 1 1 1 9 2 1 9 9 9
left_child=3 2 13 10 8 7 18 11 23 20 -1 26 -12 27 -10 25 17 -14 -5 -13 -9 -6 -16 -3 -11 -7 -4 -2 29 -22
right_child=1 4 5 6 21 15 -8 9 14 24 12 19 16 -15 22 -17 -18 -19 -20 -21 28 -23 -24 -25 -26 -27 -28 -29 -30 -31
leaf_value=0.075373968552816861 0.0097836799178517755 0.0068603228321615327 0.017587296503159381 0.046536015616378081 -0.0021873046230567895 0.0096830855988055478 0.013800660910874119 0.08158159626385586 0.0023051748895692144 0.043211288982186097 0.18957252659282231 0.037746007177490604 0.13445139536448969 -0.0025037148562974125 -0.0013657535686656267 0.0063310132312404573 0.11558046046014514 0.20054352227410327 0.090358852329969208 0.018914307541699864 0.048954430014065138 -0.0039041340932216106 0.00021034439576458108 0.0027282229527868431 0.020186464459675649 0.016947460904931027 0.0076110216208090291 0.001590118446456219 0.02889717391206776 0.023332193682247957
leaf_weight=5332 80631 468911 54409 5232 2999323 230919 14801 3456 1180388 8562 3837 18336 4226 846466 3496177 458339 10963 2228 8654 218798 35966 5632370 5015600 618315 169673 124535 178625 242353 21968 7039
leaf_count=5332 80631 468911 54409 5232 2999323 230919 14801 3456 1180388 8562 3837 18336 4226 846466 3496177 458339 10963 2228 8654 218798 35966 5632370 5015600 618315 169673 124535 178625 242353 21968 7039
internal_value=4.13921e-06 -0.000205989 0.00744065 0.0840478 -0.00126964 0.0137429 0.0429039 0.019233 0.000362263 0.0269161 0.12841 0.0152026 0.141674 -0.000808051 -0.000103063 0.00890679 0.131019 0.157024 0.0738926 0.020372 0.0415482 -0.00330758 -0.000437032 0.00451041 0.0212949 0.0122279 0.00994095 0.00363583 0.0394065 0.044767
internal_weight=2.21664e+07 2.21112e+07 2.70008e+06 55273 1.94111e+07 1.53062e+06 28687 716832 1.07794e+07 246664 26586 470168 21254 1.16945e+06 9.69216e+06 813793 17417 6454 13886 237134 68429 8.63169e+06 8.51178e+06 1.08723e+06 178235 355454 233034 322984 64973 43005
internal_count=22166432 22111159 2700075 55273 19411084 1530625 28687 716832 10779391 246664 26586 470168 21254 1169450 9692165 813793 17417 6454 13886 237134 68429 8631693 8511777 1087226 178235 355454 233034 322984 64973 43005
cat_boundaries=0 19 46 47 48 49 73 74 101 102 130 154 183 184 210 211 212 213 240 267 268 269 270 297 298 322 346 347
cat_threshold=0 0 0 0 0 0 0 0 2048 0 0 0 0 0 0 0 0 0 8192 1074266130 0 64 10486080 16384 2181038080 8388608 0 16777216 606081040 0 0 536870912 0 0 64 301989889 4 16 0 0 1581056 0 9437184 0 0 4 16253055 1298176 524160 16 0 64 2097152 0 33554432 8388608 0 0 4096 0 0 536870912 0 0 0 268435456 4 0 0 0 1572864 0 9437184 798848 4194312 0 4224 1279524864 536903696 64 524352 0 0 1073741824 8396800 0 260 0 0 0 536873472 32 1064960 2048 67125248 0 0 0 268435584 0 8 1792 0 0 285213184 536870920 0 0 0 0 4096 0 262150 0 0 4096 0 0 0 0 67584 1610614272 69696 524548 6 16777216 192 33555456 134217728 1048704 16 0 0 0 0 0 8388608 0 0 0 0 0 0 0 0 0 0 4 0 0 0 1048576 0 8388608 8390656 2147483648 0 4 0 0 0 0 0 16 0 8704 32 0 134250496 302780416 1073741824 12 0 92274688 1677723648 512 0 0 0 0 3145728 32774 1 1572928 0 4608 268435456 1114112 2 268435456 536870912 4194333 65536 0 0 134217728 0 2181040128 2 2 8913152 0 25165824 2097160 0 0 0 16 32770 1028 100096 67072 57478 262146 33570816 1024 0 67764224 272629760 1573124 2080 128 8388608 8388608 0 0 32768 0 2 1048576 11264 0 0 2147483648 134217729 0 0 8208 4194304 2048 2 33570816 1024 0 67239944 4194304 5767184 10240 1024 8388608 67108864 0 0 32768 201330688 0 2147483648 8388610 0 0 0 1073741888 0 16384 8208 4325376 2048 3670080 290944 100096 2 16896 1024 0 67637504 4194304 4718848 67119104 32 25165824 67108864 0 0 0 8388608 2 0 0 0 0 2147483648 1208090628 16 16384 8208 4194304 2048 229376 1073741824 0 64 2097152 0 33554432 0 0 0 4096 0 0 536870912 0 0 0 268435456 4 0 0 0 524288 0 1048576 16 0 0 2097152 0 0 0 0 0 4096 0 0 536870912 0 0 0 268435456 0 0 0 0 524288 0 1048576 122433
is_linear=0
shrinkage=0.1


Tree=3
num_leaves=31
num_cat=30
split_feature=1 1 4 4 4 1 4 3 1 0 4 2 3 2 4 4 1 4 4 4 0 1 2 0 0 4 2 1 2 1
split_gain=31129.5 14579.6 11339 7887.04 5210.3 3257.26 2192.77 1917.66 1625.63 1404.51 1367.61 990.375 889.963 781.71 781.373 740.492 665.156 626.082 595.129 533.931 503.811 479.207 435.258 432.786 412.402 384.682 378.838 352.174 387.932 337.84
threshold=0 1 2 3 4 5 6 7 8 9 10 11 12 13 14 15 16 17 18 19 20 21 22 23 24 25 26 27 28 29
decision_type=9 9 1 1 1 9 1 1 9 9 1 9 1 9 1 1 9 1 1 1 9 9 9 9 9 1 9 9 9 9
left_child=3 2 5 19 -3 7 9 10 25 -5 20 21 17 -8 16 29 -10 -11 -7 -1 -2 -9 -14 -20 -23 -6 -13 28 -22 -4
right_child=1 4 15 6 8 18 13 11 14 12 -12 26 22 -15 -16 -17 -18 -19 23 -21 27 24 -24 -25 -26 -27 -28 -29 -30 -31
leaf_value=0.039057431728306766 0.062606554256984095 -0.0031165441740698893 0.007767036155094254 0.069005971985089606 0.0061816390057494071 0.0047730678062110092 0.046532824563452063 0.027473371858250068 0.0039985298039519343 0.22488179882647527 0.016863851870177238 2.5685314473491907e-05 0.092790375513496254 0.089629034813857311 -0.00088524418544945905 -0.0025455372568767604 0.00037472033510066384 0.14388071511963477 0.026850429699219427 0.0017167387368553688 0.038352630120963252 0.028083753469612224 0.13480749613790408 0.009727527096899509 0.014698872385200812 0.0023459335988870859 0.011074693463615636 0.020591589893498755 0.02077123452183316 0.0010837444861193691
leaf_weight=6248 5569 7938920 100412 4042 439318 332849 6549 46425 588895 1646 96683 36404 3972 12216 6172767 766022 3620523 2834 15239 9882 62907 26142 7739 468475 194238 645935 210610 22452 15790 306495
leaf_count=6248 5569 7938920 100412 4042 439318 332849 6549 46425 588895 1646 96683 36404 3972 12216 6172767 766022 3620523 2834 15239 9882 62907 26142 7739 468475 194238 645935 210610 22452 15790 306495
internal_value=-1.17376e-06 -0.000188294 0.0066871 0.0750434 -0.00114725 0.0123471 0.099373 0.0172644 0.000216102 0.122281 0.0254836 0.0140103 0.13553 0.0746212 -0.000168844 -0.000714281 0.000881697 0.174076 0.00802794 0.016196 0.0332905 0.0182351 0.120648 0.0102675 0.0162878 0.0038987 0.0094464 0.0316704 0.0348281 0.00273312
internal_weight=2.21682e+07 2.21131e+07 2.70671e+06 55128 1.94064e+07 1.53378e+06 38998 717220 1.14674e+07 20233 203401 513819 16191 18765 1.03822e+07 1.17293e+06 4.20942e+06 4480 816563 16130 106718 266805 11711 483714 220380 1.08525e+06 247014 101149 78697 406907
internal_count=22168198 22113070 2706712 55128 19406358 1533783 38998 717220 11467438 20233 203401 513819 16191 18765 10382185 1172929 4209418 4480 816563 16130 106718 266805 11711 483714 220380 1085253 247014 101149 78697 406907
cat_boundaries=0 19 46 47 48 49 73 74 75 102 130 131 132 133 134 135 136 162 163 164 165 192 216 217 245 272 273 274 298 299 323
cat_threshold=0 0 0 0 0 0 0 0 2048 0 0 0 0 0 0 0 0 0 8192 524306 0 64 10486080 49152 2181038080 8388608 0 16777216 606081040 0 0 536870912 0 0 64 301989889 4 16 0 0 1581056 0 9437184 0 0 4 524160 15204479 15728767 16 0 64 2097152 0 33554432 8388608 0 0 4096 0 0 536870912 0 0 0 268435456 4 0 0 0 1572864 0 9437184 102144 96 1077936136 0 268439680 1212416000 536870930 64 524352 0 0 1073741824 8396800 0 4 0 0 0 536873472 32 1064960 2048 67125248 0 0 0 268435584 0 8 1024 0 285213186 536870912 0 0 0 0 4096 0 2147745798 0 0 0 0 0 65536 0 65536 536874496 8454208 17301764 4 0 192 33554432 134217732 1048704 102144 1 96 24710 100096 3670080 0 262144 67108864 68222976 0 268435456 536870912 4194333 65536 0 0 134217728 256 2147485696 2 1048578 8913152 1024 25165828 8 0 0 0 16 32770 1024 1536 290944 2621504 2 24576 1024 0 67764224 134217728 5768452 33564674 0 8388608 67108864 0 0 0 0 2 1048576 2 0 0 2147483648 1207959552 0 16384 8208 4194336 2048 0 0 0 0 0 0 0 0 0 4096 0 0 0 0 0 0 268435456 4 0 0 0 0 0 1048576 28800 301989888 4203538 2048 0 67239936 4194304 0 67108866 32 8388608 67108864 536875040 0 256 16384 0 2147483648 2 0 0 2151677952 1073872896 16 0 0 133120 0 6144 262146 33570816 1024 4194304 69865480 406847488 5767424 2048 0 8388608 0 0 0 0 8388608 2 0 8192 0 0 2147483648 134217728 262144 16384 8208 4194304 2048 100096 8846 16 0 64 2097152 0 0 0 0 0 4096 0 0 0 0 0 0 268435456 0 0 0 0 524288 0 1048576 118881 0 0 64 10485760 16384 33554432 0 0 0 4096 0 0 536870912 0 0 0 268435456 4 0 0 0 1048576 0 1048576
is_linear=0
shrinkage=0.1


Tree=4
num_leaves=31
num_cat=22
split_feature=5 4 4 4 0 10 4 0 4 4 4 10 0 5 5 0 5 4 0 0 3 0 5 5 4 4 4 0 4 0
split_gain=25163.6 9135.68 6611.79 1681.21 1421.98 1374.97 1313.4 969.531 779.366 682.473 645.642 487.89 449.7 399.702 369.157 333.464 332.891 264.441 264.143 203.639 186.336 145.894 144.392 150.647 140.812 138.757 127.954 123.393 122.09 121.532
threshold=1.0000000180025095e-35 0 1 2 3 1.0000000180025095e-35 4 5 6 7 8 1.0000000180025095e-35 9 0.76549997925758373 0.79550001025199901 10 0.99950000643730175 11 12 13 14 15 0.71250000596046459 0.9924999773502351 16 17 18 19 20 21
decision_type=2 1 1 1 9 2 1 9 1 1 1 2 9 2 2 9 2 1 9 9 1 9 2 2 1 1 1 9 1 9
left_child=2 3 4 5 17 13 12 -6 -3 11 16 21 -4 -2 -5 -11 22 -1 -17 -14 28 -9 -7 -24 -21 -15 -10 -13 -16 -20
right_child=1 8 6 14 7 10 -8 9 26 15 -12 27 19 25 20 18 -18 -19 29 24 -22 -23 23 -25 -26 -27 -28 -29 -30 -31
leaf_value=0.18226270361959937 0.004673360969186852 -0.00099274414958274012 0.088817672275088438 0.0023665597846479658 0.04011693287725622 0.011855490439544151 0.0014008703099422427 0.13676154161450774 -0.0025206265280038973 0.11343732819322801 0.0026639024786778522 0.20257401700274877 0.066158957494718715 0.0022988133188629424 0.0031942250893737811 0.10026997263530107 0.0047821895285691755 0.12832904800401829 0.080887417502167769 0.013564254018436217 -2.9786118334698257e-05 0.093304412397814854 0.0072621607830506852 0.018512624592165475 0.040879874029716434 0.00088971284847390157 -0.003373419836337144 0.14207238798850913 0.00084692276652871806 0.055633585145871849
leaf_weight=1865 425464 2681393 2288 1038454 3471 88832 10075 1152 3176774 3301 661884 614 2544 1095466 262038 3482 564448 2470 3627 2503 4258380 3732 538558 12171 8109 1930195 3944583 1935 1435252 4664
leaf_count=1865 425464 2681393 2288 1038454 3471 88832 10075 1152 3176774 3301 661884 614 2544 1095466 262038 3482 564448 2470 3627 2503 4258380 3732 538558 12171 8109 1930195 3944583 1935 1435252 4664
internal_value=1.20675e-06 -0.000168077 0.067051 0.00164561 0.0986181 0.00298589 0.0295034 0.0896721 -0.00244586 0.0972932 0.0051729 0.12237 0.0478235 0.00180346 0.000626714 0.084855 0.0065521 0.151898 0.0767514 0.040632 0.000323348 0.104026 0.00811425 0.00751079 0.0344559 0.0013999 -0.002993 0.157998 0.00120933 0.0667653
internal_weight=2.21697e+07 2.21139e+07 55832 1.23111e+07 30313 5.31702e+06 25519 25978 9.80275e+06 22507 1.86589e+06 7433 15444 3.45112e+06 6.99412e+06 15074 1.20401e+06 4335 11773 13156 5.95567e+06 4884 639561 550729 10612 3.02566e+06 7.12136e+06 2549 1.69729e+06 8291
internal_count=22169724 22113892 55832 12311142 30313 5317018 25519 25978 9802750 22507 1865893 7433 15444 3451125 6994124 15074 1204009 4335 11773 13156 5955670 4884 639561 550729 10612 3025661 7121357 2549 1697290 8291
cat_boundaries=0 1 2 3 31 32 60 61 62 63 92 120 121 150 178 179 208 209 210 211 239 240 268
cat_threshold=524160 1302272 100096 2048 2147483648 0 4 0 0 0 0 0 16 0 8720 268435488 0 134217728 302583808 1073872896 12 0 25165824 1946159104 0 268435456 0 0 0 3276800 6 2891968 0 0 268435968 3162112 0 0 0 0 0 0 2 0 0 0 0 0 0 134217728 65536 536871936 65600 524548 47218884 131072 192 33554944 201327104 128 1572928 67072 1792 8390656 0 0 4 0 0 0 0 0 0 64 8704 0 0 134316032 33820672 1073872896 65612 0 20971521 1979713536 32768 0 0 0 0 0 134348802 1 14680080 262144 41943040 67109376 0 0 0 0 0 0 64 0 33554432 16777216 98304 262144 260 16777280 0 71827457 0 33288 0 0 0 0 0 1208254560 99840 32 1048578 1073745924 32 0 0 0 0 1090519040 327680 541952 0 2147483776 65536 32 2048 0 1073807360 0 0 33554432 0 0 0 0 1073741824 2147549186 21102592 3 2097168 2147483648 0 64 0 0 0 0 16777216 66064 256 0 2449473568 536870912 0 269027328 4352 16777216 0 75497472 0 0 268435456 0 0 1073741824 3342336 17039364 96 8388624 262146 1115688964 608 0 0 0 0 0 0 1344 0 2147483648 0 65536 262144 256 64 0 2215116801 40 0 0 0 0 0 65536 138674208 1 64 98304 6291489 0 2 41947140 544 256 0 0 0 0 0 786496 0 8388608 16777216 32 0 260 0 0 6815745 32 18874880 67108864 0 0 1073741824 2147483650 426016 2048 1024 0 98336 64 256 0 0 0 0 33554948 0 0 0 536875008 2048 0 67112960 0 33554432 2183137986 8388648 0 67108864 2 0 0 4 268500992
is_linear=0
shrinkage=0.1


Tree=5
num_leaves=31
num_cat=26
split_feature=1 1 4 4 4 1 10 4 1 4 2 1 1 5 0 4 0 0 6 4 0 4 4 10 4 0 0 1 4 2
split_gain=20856.9 11701.5 8468.32 5468.79 3195.7 2695.18 1711.13 1394.8 1333.36 1278.38 1219.19 1137.89 743.23 693.364 573.39 565.816 453.783 437.589 411.065 484.993 409.882 402.349 381.767 378.112 461.457 357.337 356.989 328.625 315.549 311.24
threshold=0 1 2 3 4 5 1.0000000180025095e-35 6 7 8 9 10 11 0.79550001025199901 12 13 14 15 21.654999732971195 16 17 18 19 1.0000000180025095e-35 20 21 22 23 24 25
decision_type=9 9 1 1 1 9 2 1 9 1 9 9 9 2 9 1 9 9 2 1 9 1 1 2 1 9 9 9 1 9
left_child=3 2 5 10 -3 6 11 26 -6 17 20 -2 -10 21 -12 -4 -13 -8 -16 23 -1 -7 27 -20 -25 -15 -5 -14 -18 -11
right_child=1 4 15 7 8 13 9 -9 12 29 14 16 22 25 18 -17 28 -19 19 -21 -22 -23 -24 24 -26 -27 -28 -29 -30 -31
leaf_value=0.088162710080187875 0.0049482464371503861 -0.0026709790840804661 0.0031471301896520195 0.091353047981511851 0.0032583231675772633 0.01540955675124972 0.077043045210752781 0.0083294683398576035 0.0016667691850126736 0.021325641162005027 0.079883374060333676 0.03196813535224214 0.0020182308750627716 0.018117294202850649 0.089625036084736417 -0.0017564685148820224 0.011445120703366833 0.035055832899151915 0.1325915301392496 0.1016489753877 0.047381213628075021 0.0079357676831912152 -0.0013563064557254572 0.22521537687256321 0.1147279078415987 0.0055521338509156486 0.045807867448694535 -0.00039919303042249834 0.019040889765648352 0.0095245140763920138
leaf_weight=4513 131847 7271503 325448 2001 1125776 149888 2616 14258 1560371 111675 4825 17654 646959 23424 3018 849560 108032 51155 3696 3475 5661 138840 4494067 1208 667 666011 13289 4298691 111083 28010
leaf_count=4513 131847 7271503 325448 2001 1125776 149888 2616 14258 1560371 111675 4825 17654 646959 23424 3018 849560 108032 51155 3696 3475 5661 138840 4494067 1208 667 666011 13289 4298691 111083 28010
internal_value=2.40228e-06 -0.000152807 0.00599566 0.0606175 -0.00101347 0.0108734 0.0163919 0.0308463 -1.95165e-05 0.0240084 0.0930991 0.012395 -0.000354981 0.00770226 0.109652 -0.000398278 0.0165409 0.0371125 0.121482 0.132245 0.0655399 0.0118165 -0.000689175 0.150876 0.187724 0.00597939 0.0518242 -8.29573e-05 0.0152966 0.0189601
internal_weight=2.21692e+07 2.21126e+07 2.71524e+06 56611 1.93974e+07 1.54024e+06 562072 29548 1.21259e+07 193456 27063 368616 1.10001e+07 978163 16889 1.17501e+06 236769 53771 12064 9046 10174 288728 9.43972e+06 5571 1875 689435 15290 4.94565e+06 219115 139685
internal_count=22169221 22112610 2715243 56611 19397367 1540235 562072 29548 12125864 193456 27063 368616 11000088 978163 16889 1175008 236769 53771 12064 9046 10174 288728 9439717 5571 1875 689435 15290 4945650 219115 139685
cat_boundaries=0 19 46 47 48 49 73 74 101 102 103 109 135 163 164 191 217 218 242 243 244 245 273 302 330 331 332
cat_threshold=0 0 0 0 0 0 0 0 2048 0 0 0 0 0 0 0 268435456 0 8192 1074266130 0 64 10486080 536887296 2181038080 8388608 0 16777216 606081040 0 0 536870912 0 0 64 33554433 4 16 0 0 1581056 0 9437184 0 0 4 524160 1298176 14680191 16 0 64 2097152 0 33554432 0 0 0 4096 0 0 536870912 0 0 0 0 0 0 0 0 1572864 0 1048576 2896000 4194312 0 4224 1212416000 32786 268435520 524352 4194304 0 1073741824 8396800 0 4 2147483648 0 0 536872960 32 1064960 2048 67125248 0 0 0 268435584 0 8 1792 24711 16 0 0 0 0 33554432 0 4608 335544320 68222976 65536 512 2147483648 65581 65536 4 8 671088640 256 33554432 524288 2 524800 0 0 8 0 0 0 16 2129920 1028 1024 0 32768 0 0 0 0 0 4096 4 2147483654 0 0 536940544 32 0 67178496 1073741824 33554432 33558082 8388608 0 0 2 0 2147483648 5 273743873 1572928 262146 33570816 1024 0 76152832 272629760 5767424 2080 268435584 8388608 8388608 0 0 32768 8388608 0 1048576 10240 0 0 2147483648 0 1 16384 16 4194304 2048 514 25088 1024 0 67239936 138420224 1024 2147493890 1024 8388608 0 0 0 64 67112960 134225920 2147483648 131072 0 0 0 0 0 16384 8208 4325472 100096 0 2 69942 8 288 0 0 0 1073741824 0 0 0 8388608 0 0 0 0 0 256 3223846912 4136 23069696 67108864 4096 231168 233216 1792 301989896 4205586 2048 0 67244032 4194304 0 67110912 0 0 67108864 536870944 0 0 0 8192 2147483648 2 0 0 4194304 1610743808 16 0 2048 133120 2048 2048 8390656 2147483648 0 4 0 0 0 0 0 16 0 8704 32 0 134316032 301989888 1073872896 65604 0 96468992 1946159104 0 0 0 0 0 2097152 134217730 1 1 270336 512 16777216 0 1073741824 536904192 2147483664 0 268435456 4096 262144 0 2048 2 1048576 8388896 8389632 25165828 2097152 0 1024 134217984 2097152 2 0 0 1 292992 103009
is_linear=0
shrinkage=0.1


Tree=6
num_leaves=31
num_cat=19
split_feature=1 1 1 1 2 2 10 1 1 2 6 6 1 1 5 5 2 2 10 1 5 1 5 5 3 1 8 3 3 5
split_gain=16885.5 9569.68 1646.57 1095.36 1086.23 632.629 624 731.563 608.451 571.379 474.065 428.879 308.219 271.234 269.329 207.674 205.021 187.048 148.17 145.108 235.281 143.336 140.315 136.27 128.411 128.291 124.804 109.494 109.104 103.571
threshold=0 1 2 3 4 5 1.0000000180025095e-35 6 7 8 21.244999885559086 24.724999427795414 9 10 0.79550001025199901 0.99950000643730175 11 12 1.0000000180025095e-35 13 0.58849999308586132 14 0.75301584601402294 0.79550001025199901 15 16 0.68814998865127575 17 18 0.99950000643730175
decision_type=9 9 9 9 9 9 2 9 9 9 2 2 9 9 2 2 9 9 2 9 2 9 2 2 1 9 2 1 1 2
left_child=4 3 16 5 10 13 14 9 17 11 -1 26 -10 -2 -5 19 28 22 -6 20 25 -17 -4 -9 -12 -14 -8 -15 -3 -19
right_child=1 2 8 6 18 -7 7 23 12 -11 24 -13 15 27 -16 21 -18 29 -20 -21 -22 -23 -24 -25 -26 -27 -28 -29 -30 -31
leaf_value=0.045216587760321073 0.016970337187226993 0.0043650374027745364 0.0064061593612292113 0.0056988317814805727 0.034638246552188126 0.0058712001810759936 0.051529607015664836 0.0076058097117676698 -0.00017927043760412485 0.0052593010679481845 0.081032880658627168 0.0057115257146931461 0.01499526287712939 0.013939351878602011 0.0017227000189118343 -0.00071244040108719986 0.0007103385479435456 0.00053992067879627889 0.050747377632415991 -0.0011721766982865801 -2.9632497739783255e-05 -0.0020029187865154697 0.0011865130563264571 0.0030988417442294829 0.065218041438270341 0.003209219911712656 0.023094526533294031 0.0098783498216706497 0.002249362786958821 -0.0012485388321537127
leaf_weight=7266 104253 341571 54288 284480 18252 214435 1585 139097 2291158 40479 13413 16636 15900 94800 424662 1006148 711518 659783 8309 6353864 476507 5955616 1003506 129584 9534 22059 59009 223172 851473 635872
leaf_count=7266 104253 341571 54288 284480 18252 214435 1585 139097 2291158 40479 13413 16636 15900 94800 424662 1006148 711518 659783 8309 6353864 476507 5955616 1003506 129584 9534 22059 59009 223172 851473 635872
internal_value=7.06722e-07 -0.000139154 -0.000745673 0.00699652 0.0544619 0.0102953 0.0050794 0.00831265 -0.00103428 0.0148865 0.0674549 0.0199311 -0.00125355 0.0125419 0.00331777 -0.00143152 0.00205387 0.000467724 0.0396627 -0.00104139 0.000573941 -0.00181642 0.00145438 0.00543191 0.0745259 0.00815087 0.0238383 0.0110895 0.00285512 -0.000337804
internal_weight=2.21682e+07 2.21115e+07 2.03793e+07 1.73219e+06 56774 636660 1.09553e+06 386390 1.84747e+07 117709 30213 77230 1.61213e+07 422225 709142 1.38301e+07 1.90456e+06 2.35345e+06 26561 6.86833e+06 514466 6.96176e+06 1.05779e+06 268681 22947 37959 60594 317972 1.19304e+06 1.29566e+06
internal_count=22168229 22111455 20379263 1732192 56774 636660 1095532 386390 18474701 117709 30213 77230 16121252 422225 709142 13830094 1904562 2353449 26561 6868330 514466 6961764 1057794 268681 22947 37959 60594 317972 1193044 1295655
cat_boundaries=0 19 43 70 94 95 96 97 124 125 153 177 178 179 206 232 233 260 261 262
cat_threshold=0 0 0 0 0 0 0 0 2048 0 0 0 0 0 0 0 268435456 0 8192 16 0 64 10486016 16384 2181038080 8388608 0 16777216 69210112 0 0 536870912 0 0 0 0 4 0 0 0 1581056 0 9437184 1074266122 0 128 1212416064 536903696 64 524352 8 0 1610612752 8388608 0 4 0 0 64 33556481 0 16400 2048 67108864 0 0 0 128 0 4 0 0 64 2097152 0 0 0 0 0 4096 0 0 536870912 0 0 0 0 0 0 0 0 524288 0 1048576 199792 1 16 4194304 0 268439552 67108864 67108866 268435456 0 4194325 65536 0 8192 134217728 256 2181038080 524288 16386 537395712 32 1048576 0 16384 0 0 16 268468224 1028 8 119905 0 266752 67108864 17891328 65536 0 2147484160 65568 0 260 1032 536870912 0 2048 2 1048576 8388864 8388608 16777220 2097160 0 4194304 0 65536 2097154 0 0 1 0 0 0 0 0 0 0 0 0 4096 0 0 0 0 0 0 0 0 0 0 0 0 0 1048576 75303 7 4 8256 32 0 0 0 32768 0 0 37748736 1073745920 0 0 1344 0 0 16778272 604509184 0 0 32 4104 134217984 2097152 0 2147483664 335552513 2097153 8192 0 0 0 1082130944 536870912 16384 0 306339904 2164264960 264192 12288 0 0 33554432 32 0 2155872256 8388608 0 2048 134217984 8192 0 16 99 0 64 0 0 0 0 0 0 0 0 0 0 0 64 0 0 16777216 0 0 0 32 0 0 0 0 2147483648 67108864 96 96
is_linear=0
shrinkage=0.1


Tree=7
num_leaves=31
num_cat=28
split_feature=1 1 4 4 4 1 4 4 3 2 1 4 1 1 2 2 6 4 3 4 1 3 4 5 1 2 4 1 2 1
split_gain=13467.1 7744.72 6022.42 4535.69 3499.17 2279.07 1344.23 1257.22 1123.21 699.032 646.229 582.664 546.881 540.935 429.719 422.605 420.05 403.084 365.414 544.306 332.107 316.705 686.143 311.663 283.34 275.884 267.481 259.659 254.395 272.631
threshold=0 1 2 3 4 5 6 7 8 9 10 11 12 13 14 15 21.244999885559086 16 17 18 19 20 21 0.99950000643730175 22 23 24 25 26 27
decision_type=9 9 1 1 1 9 1 1 1 9 9 1 9 9 9 9 2 1 1 1 9 1 1 2 9 9 1 9 9 9
left_child=3 2 8 9 5 18 14 15 12 -1 -7 20 17 -10 24 -5 -11 28 19 -3 -6 22 -18 27 26 -15 -4 -12 29 -2
right_child=1 4 6 7 11 10 -8 -9 13 16 23 -13 -14 25 -16 -17 21 -19 -20 -21 -22 -23 -24 -25 -26 -27 -28 -29 -30 -31
leaf_value=0.055335915747445341 0.04787058252835262 0.013716962685815966 0.027257224331095172 0.021813457420109299 0.0015185156244132362 0.0024544328083444551 -0.0018805001651424566 0.0031402407040955339 0.016023354198685672 0.062768814714059859 0.003385643505604807 -0.0025474748159266918 0.014062040273806288 0.010556858202047667 0.0027994639886722121 0.054605053822971719 0.17035943709287707 0.020494722929573508 0.0038531110293977206 0.0049214604303136813 -0.0013356516497184927 0.090576177556777757 0.084342445767031288 -0.00081474030449281724 0.0063224336965051631 0.0026874035636248444 0.011148224417754019 0.0002443061420924189 0.021518313169298867 0.028947142048045951
leaf_weight=7339 14706 105972 12554 6219 449104 1091610 498128 15142 174198 3680 283949 5950856 65864 200604 262645 10892 1841 63145 793840 209460 4419282 9401 2028 3633809 148768 57297 57856 3587731 13632 16114
leaf_count=7339 14706 105972 12554 6219 449104 1091610 498128 15142 174198 3680 283949 5950856 65864 200604 262645 10892 1841 63145 793840 209460 4419282 9401 2028 3633809 148768 57297 57856 3587731 13632 16114
internal_value=-2.20216e-06 -0.000126853 0.00660693 0.0487348 -0.000647011 0.000731481 0.00176206 0.0241379 0.014447 0.0813733 0.00018106 -0.00188371 0.0212452 0.0117175 0.00552784 0.0427066 0.0926077 0.0256406 0.00499732 0.00787672 -0.00107235 0.100952 0.125606 -0.000149586 0.00879702 0.0088087 0.0140239 0.000474701 0.0329441 0.0379892
internal_weight=2.21677e+07 2.21111e+07 1.58551e+06 56542 2.05256e+07 9.70637e+06 979951 32253 605560 24289 8.5971e+06 1.08192e+07 173461 432099 481823 17111 16950 107597 1.10927e+06 315432 4.86839e+06 13270 3869 7.50549e+06 219178 257901 70410 3.87168e+06 44452 30820
internal_count=22167666 22111124 1585511 56542 20525613 9706371 979951 32253 605560 24289 8597099 10819242 173461 432099 481823 17111 16950 107597 1109272 315432 4868386 13270 3869 7505489 219178 257901 70410 3871680 44452 30820
cat_boundaries=0 19 43 44 45 46 73 74 75 76 77 104 105 129 153 154 155 156 157 158 185 186 187 211 212 213 240 241 265
cat_threshold=0 0 0 0 0 0 0 0 2048 0 0 0 0 0 0 0 268435456 0 8192 16 0 64 10485760 16384 2181038080 8388608 0 16777216 69210112 0 0 536870912 0 0 0 0 4 0 0 0 1581056 0 9437184 249600 1281792 253824 1078460418 0 4224 1212416320 536903696 64 524352 0 0 1610612752 0 0 4 0 0 64 33556481 32 1048592 2048 0 0 0 0 128 0 4 1847488 815232 96 8325 0 0 268435456 68222976 2 268435456 536870912 4259848 65536 0 8396800 134217728 256 2147485696 2 2 536871424 1024 8404996 0 67125248 0 0 2097168 268435456 1024 8 3940416 16 0 64 2097152 0 0 0 0 0 4096 0 0 0 0 0 0 0 0 0 0 0 1572864 0 1048576 0 0 64 2097152 0 0 0 0 0 4096 0 0 0 0 0 0 0 0 0 0 0 524288 0 1048576 1 24711 1792 96 1792 1073741832 0 0 138674496 603979776 64 524352 0 0 1610612736 8388608 536870912 0 2181038080 524288 64 570425344 0 16384 2048 67108992 4194304 4 0 0 4 524300 96 1792 0 0 0 2097152 16384 33554432 0 0 0 4096 0 0 536870912 0 0 0 0 4 0 0 0 0 0 1048576 121441 128 8 262720 67371040 0 65536 0 32768 17 0 0 4104 0 0 320 524288 16384 525344 67112960 16777216 0 32 4196352 134217984 65536 2097152 2147483648 67108864 98369 16 0 0 0 0 0 0 0 0 4096 0 0 0 0 0 0 0 0 0 0 0 0 0 1048576
is_linear=0
shrinkage=0.1


Tree=8
num_leaves=31
num_cat=25
split_feature=1 1 1 0 0 0 5 1 10 11 1 2 0 0 0 5 1 1 0 2 0 0 0 0 0 0 2 0 8 0
split_gain=11101.8 6359.84 1276.11 1169.51 634.155 605.324 538.814 525.997 440.016 692.658 353.721 351.059 303.715 272.801 250.031 234.737 294.012 228.585 225.429 180.341 170.736 161.814 156.536 153.502 150.455 148.078 146.486 145.571 140.498 132.369
threshold=0 1 2 3 4 5 0.90227749943733226 6 1.0000000180025095e-35 1.0000000180025095e-35 7 8 9 10 11 0.62549999356269848 12 13 14 15 16 17 18 19 20 21 22 23 4.4775002002716073 24
decision_type=9 9 9 9 9 9 2 9 2 2 9 9 9 9 9 2 9 9 9 9 9 9 9 9 9 9 9 9 2 9
left_child=3 2 4 -1 -2 -5 8 14 19 13 25 18 -7 -10 -3 16 -12 29 -6 24 -8 -20 -14 -13 -4 -9 28 -11 -15 -17
right_child=1 7 6 5 11 12 20 10 9 27 15 23 22 26 -16 17 -18 -19 21 -21 -22 -23 -24 -25 -26 -27 -28 -29 -30 -31
leaf_value=0.081385613850535721 0.019511715446452402 0.0078831461979836977 0.011668229406947457 0.018318953859068825 0.015501911727039361 0.061255751843877819 0.0081410895339046278 0.0037351292078500659 0.053018475482353104 0.019703563461929367 0.012073987487304294 0.012426203259998062 0.050157400667701191 0.022939661269838429 0.0007688387432476186 0.0030009912998823119 0.00049785212042916785 -0.0013318130615913521 0.0029502312425634006 -0.00069126135190710261 0.0014236560674791979 0.0092046999566392611 0.034522785076396251 0.0034717500378131623 0.0036279570298655885 9.6328588604036628e-06 0.0089672125491941472 0.0054818001066618133 0.0054079692984684083 -0.00042487319948317616
leaf_weight=7378 46439 51029 24448 11330 50004 8657 39245 111376 2137 7368 22960 21077 9841 30088 1538846 118879 489371 12337901 48376 96960 1048547 286758 19390 208323 482766 2530456 17022 299489 5390 2196379
leaf_count=7378 46439 51029 24448 11330 50004 8657 39245 111376 2137 7368 22960 21077 9841 30088 1538846 118879 489371 12337901 48376 96960 1048547 286758 19390 208323 482766 2530456 17022 299489 5390 2196379
internal_value=2.12094e-06 -0.000111106 0.00442248 0.0442314 0.00824417 0.0386464 0.0031923 -0.000745536 0.00491155 0.00767118 -0.000901134 0.0073924 0.0447186 0.0180449 0.000997229 -0.00108715 0.00101688 -0.00116072 0.00923717 0.00326039 0.00166609 0.00830199 0.0398017 0.00429498 0.00401573 0.000166708 0.016608 0.0058241 0.0202704 -0.000248957
internal_weight=2.21682e+07 2.21116e+07 2.71444e+06 56596 660977 49218 2.05346e+06 1.93972e+07 965668 361494 1.78073e+07 614538 37888 54637 1.58988e+06 1.51655e+07 512331 1.46532e+07 385138 604174 1.08779e+06 335134 29231 229400 507214 2.64183e+06 52500 306857 35478 2.31526e+06
internal_count=22168230 22111634 2714437 56596 660977 49218 2053460 19397197 965668 361494 17807322 614538 37888 54637 1589875 15165490 512331 14653159 385138 604174 1087792 335134 29231 229400 507214 2641832 52500 306857 35478 2315258
cat_boundaries=0 19 46 70 99 127 155 182 210 211 239 264 291 318 345 373 374 402 426 455 483 511 538 539 565 592
cat_threshold=0 0 0 0 0 0 0 0 2048 0 0 0 0 0 0 0 268435456 0 8192 1074266130 0 64 10486016 536920064 2181038080 8388608 0 16777216 606081040 0 0 536870912 0 0 64 33554433 4 16 0 0 1581056 0 9437184 0 0 4 0 0 64 2097152 0 33554432 0 0 0 4096 0 0 536870912 0 0 0 0 4 0 0 0 1572864 0 9437184 8390656 2147483648 0 4 0 0 0 0 0 0 64 8704 268435488 0 134283264 301993984 1073872896 76 0 17301505 1677723648 0 0 0 0 0 3145730 32770 1 262146 33570816 1024 4194304 76021760 406847488 1572864 2080 0 0 8388608 0 0 32768 8388608 0 1572864 11264 0 0 2147483648 134217728 0 0 16 4198432 2048 67108864 0 0 285245970 536870920 32 0 0 0 4096 0 2147745798 65536 0 0 0 0 0 0 65538 536871936 8454208 524548 4 0 192 33554432 134217728 1048704 8 0 268439680 1212416064 16 64 524352 13 65536 1073741824 8396800 0 260 0 0 2 536872960 0 16384 2048 67125248 0 0 0 268435584 0 8 4194304 266240 67108864 84934656 65538 268435456 0 4194352 0 4 0 671088640 0 2181038080 524288 16384 8913408 8388640 17825792 2097152 0 0 0 16 32768 1024 0 1 1 2097168 2 4 544 256 0 0 0 0 66064 256 16 0 0 0 264192 256 16842752 0 81788928 301989920 512 268435456 0 0 1073741824 196608 134479876 0 33570816 1048576 0 67244296 146800640 18 2147485696 1 16384 67108864 67125248 16384 0 603979777 8192 301989888 2 0 0 0 134217728 1024 16384 8192 2 24576 3072 4194304 344592384 4194304 1572864 67110912 128 8388608 8388608 0 0 0 8388608 2 0 1581056 0 0 2151677952 1073741825 0 0 0 4325376 2048 0 64 0 0 0 0 0 0 0 0 2147483648 0 0 525520 1048832 0 16777216 528384 0 1048577 32 0 0 0 0 2147483648 67108864 1 512 0 65536 0 1073742336 2684387840 81920 0 306184456 5128 0 8192 0 0 33554432 32 1024 8388612 8388608 0 4194304 256 65536 2097154 0 1 536870912 512 0 0 2232328 0 12583172 0 268435584 25178112 0 0 134217728 33554432 0 514 0 4096 8389632 0 1 64 262145 16416 8192 64 0 2097152 236641 0 9232 0 131072 131072 4194304 272 67110912 128 0 67108864 32 0 0 16384 8192 0 140288 0 0 2151677952 1744961600 16 16384 2048 4327424 0 2048 16781312 8 0 0 138412032 34636336 33818624 1078001664 33554448 1024 0 2359424 8192 8388608 0 128 0 16 128 16 0 4096 8 1 4194336 262144 1115688960 67108928 0 0 0 0 0 262148 0 0 2181038080 536870912 32768 589824 67108868 1073741824 0 2181038144 8 32768 0 0 0 0 2147483648 21102688 2 1050624 2147483648 8192 268435456 4 0 0 67108944 512 256 8225 4640 2048 16644 0 8192 2149580928 1179650 0 0 0 1 0 1024 1 0 0 2048 0 33570816 0 0 131076 4194304 1208483840 67110978 1056 0 32 16416 0 0 603996160 8194 2147483648 139264 0 0 2147483648 8388608 0 16384 0 4194336 2048 2048 262146 9216 2048 4194304 75628544 272629760 5767168 67110944 128 0 0 0 0 32768 0 8192 2147483648 11264 0 0 4194304 1207959552 0 16384 8192 4325376 2048 118849 2147483656 8192 2052 0 67109120 4194304 0 102760450 1056 0 67108864 536875040 0 4 201342976 8194 0 131072 0 0 4194304 1084227584 16 0 2048 131072 262144 24832 1024 4194304 75628672 4194304 5767424 2048 128 16777216 75497472 0 0 32776 8388608 0 0 10240 0 0 4194304 134217728 32 0 0 4325408 2048
is_linear=0
shrinkage=0.1


Tree=9
num_leaves=31
num_cat=23
split_feature=1 1 1 0 1 0 0 0 10 1 0 0 1 0 6 7 0 0 5 1 6 0 0 5 0 1 5 3 0 0
split_gain=8956.64 5123.63 986.127 969.629 504.392 493.092 478.554 462.735 380.437 457.822 326.319 322.105 261.541 242.311 231.651 228.959 227.105 212.024 210.673 195.081 191.7 171.725 140.514 140.236 138.655 137.362 155.949 133.987 117.467 116.205
threshold=0 1 2 3 4 5 6 7 1.0000000180025095e-35 8 9 10 11 12 24.724999427795414 59.98500061035157 13 14 0.77115893363952648 15 19.98499965667725 16 17 0.90908336639404308 18 19 0.6055000126361848 20 21 22
decision_type=9 9 9 9 9 9 9 9 2 9 9 9 9 9 2 2 9 9 2 9 2 9 9 2 9 9 2 1 9 9
left_child=3 2 6 20 13 -5 -2 -4 18 10 -10 -8 28 -3 15 -12 -7 -13 -9 22 -1 -19 -14 25 -17 26 -21 -22 -6 -15
right_child=1 4 7 5 12 16 11 8 9 -11 14 17 19 29 -16 24 -18 21 -20 23 27 -23 -24 -25 -26 -27 -28 -29 -30 -31
leaf_value=0.025132351026304508 0.017619754172053192 0.0071778522339549095 0.010814744057710525 0.016306933095886711 0.0035764107311675314 0.054462714124181834 0.014630005260881164 0.004126049599027906 0.037488231698817327 0.003367129687235436 -0.0026042206005985028 0.012600877076200119 0.0028947349515593 0.0050469018223873972 0.0029391368495484188 0.034446693486510728 0.035821939056288665 -0.002122018708698823 0.00089387677040745272 0.0094785040250607959 0.1016879004141515 0.005919106002920952 -0.00036619713950832207 -0.0013911942219565173 0.013629113687593009 -0.00085131853524964018 0.00068771420325255386 0.06910129140836109 8.7033231861135653e-06 0.0005697094585329815
leaf_weight=744 43138 60217 71906 11441 96129 8553 47526 256655 4266 525970 8640 45546 139360 60049 37375 3383 29323 28074 941122 21587 1917 491996 2547531 7957146 59337 4382269 309685 4825 2303063 1668105
leaf_count=744 43138 60217 71906 11441 96129 8553 47526 256655 4266 525970 8640 45546 139360 60049 37375 3383 29323 28074 941122 21587 1917 491996 2547531 7957146 59337 4382269 309685 4825 2303063 1668105
internal_value=-4.75921e-06 -0.000106653 0.00409552 0.0396497 -0.000658112 0.0345421 0.00743939 0.00294572 0.0026376 0.00460806 0.0103828 0.00672287 -0.000819329 0.000942614 0.00931606 0.0126573 0.0400446 0.00605822 0.00158645 -0.00097102 0.0732065 0.005485 -0.000197053 -0.00113514 0.0147596 -0.000702896 0.00126052 0.0786202 0.000151666 0.000725309
internal_weight=2.21669e+07 2.21101e+07 2.56493e+06 56803 1.95451e+07 49317 656280 1.90865e+06 1.83675e+06 638971 113001 613142 1.77568e+07 1.78837e+06 108735 71360 37876 565616 1.19778e+06 1.53576e+07 7486 520070 2.68689e+06 1.26707e+07 62720 4.71354e+06 331272 6742 2.39919e+06 1.72815e+06
internal_count=22166878 22110075 2564934 56803 19545141 49317 656280 1908654 1836748 638971 113001 613142 17756770 1788371 108735 71360 37876 565616 1197777 15357578 7486 520070 2686891 12670687 62720 4713541 331272 6742 2399192 1728154
cat_boundaries=0 19 46 70 99 126 154 182 210 211 236 264 290 317 345 371 399 427 454 481 508 509 536 564
cat_threshold=0 0 0 0 0 0 0 0 2048 0 0 0 0 0 0 0 268435456 0 8192 1074266130 0 64 1218445568 49152 2181038080 8388608 0 16777216 606081040 0 0 536870912 0 0 0 33554433 4 16 0 0 1581056 0 9437184 0 0 4 0 0 64 2097152 0 0 0 0 0 4096 0 0 536870912 0 0 0 0 4 0 0 0 1572864 0 1048576 8390656 2147483648 0 4 0 0 0 0 0 16 64 8704 32 0 134283264 301993984 1073872896 65548 0 67633153 1677723648 0 0 0 0 0 3145730 6 1 0 0 268439680 4456512 536870928 268435520 524352 12 65536 1073741824 8396800 0 260 0 0 66 536873472 0 16384 2048 67125248 0 0 0 268435584 0 8 0 0 285245970 536870920 32 0 0 0 4096 0 2147483654 65536 0 0 0 0 0 0 67586 536871938 65600 524548 4 0 192 33554432 134217728 1048704 1310722 33570816 0 4194304 76021760 272629760 1572864 32 0 0 8388608 0 0 33587200 8388608 2 1572864 11264 0 0 2147483648 134217729 0 16384 16 4194304 2048 67108864 0 33571072 1024 0 655360 138412032 524304 100665344 1056 0 67108864 16416 0 0 67125248 2 2147483648 8194 0 0 2147483648 1207959552 0 16384 8192 131104 0 2048 16 0 0 1048576 0 16781832 8463360 4195330 2684354560 0 8404992 0 0 0 67108928 1207959552 134521856 33554432 0 1048608 0 0 0 2147484672 64 16 536870912 512 134218752 0 1073877124 134217728 12583172 2048 268435584 8388608 0 0 134217728 0 0 512 2147483648 9572352 1024 0 1 0 1 0 8192 4096 0 2097408 4194312 4096 0 84934656 65538 0 0 4194321 0 4 0 671088640 0 2181038080 524290 16384 8912896 8388640 1048576 2097160 0 0 0 65552 2129920 1028 327680 24576 3072 4194304 344064000 4194304 1572864 67110912 128 8388608 8388608 536870912 2048 0 8388608 2 0 532480 0 0 4194304 1073741825 0 0 16 4325376 2048 6291472 2 33554436 544 256 0 0 0 0 66048 256 16 268435456 0 32768 0 256 64 0 31457280 301989920 512 268435456 0 0 1073741824 196608 134512640 0 0 2147483648 0 3211272 2105600 1056 8192 0 18354176 0 67633184 4194304 67371012 0 0 276824576 0 8388608 0 0 64 262656 32 0 96 2097152 270848 67108864 65536 0 1073741824 2147484162 65536 0 306184448 4096 0 8192 3072 0 1048576 288 33792 16777220 8388608 0 1024 0 2097152 2 16 0 1 0 1572864 50364416 67141632 0 32 0 0 16781328 134217728 2148008962 8388608 0 0 0 536870912 201330696 3221225472 0 1026 8388608 0 0 2 0 0 4 1343225856 268697602 24832 2048 4194304 75628544 4194304 5767168 2080 268435584 4096 8388608 536870912 0 32768 0 0 0 11264 0 0 4194304 1073741824 32 0 0 4325376 2048 1049100 402653184 0 0 2486173696 33554433 0 0 268443651 16777216 0 0 262144 0 809500672 1073872896 4194304 268566528 1024 0 1 512 0 0 0 0 16777216 8388612 603979840 32 0 0 0 32772 100663296 544 0 1077936128 0 8 328 0 0 1073742848 67637248 524288 0 32800 4194304 0 0 8388608 2148007936 67117056 96 262144 17408 2048 4194304 75633152 138412032 1572864 67110944 128 8388736 0 0 0 0 8388608 0 0 8194 0 0 0 1208090624 0 16384 8192 4390912 2048 805306370 0 0 33554432 528384 404751360 4194576 8192 268435456 16777216 0 67108864 512 8196 0 0 0 3072 0 0 2147483648 201326656 393248 16384 0 0 8388608 4096
is_linear=0
shrinkage=0.1


Tree=10
num_leaves=31
num_cat=30
split_feature=1 4 1 4 4 4 1 0 3 1 0 1 1 0 0 3 4 4 3 4 0 1 4 0 0 3 0 1 3 2
split_gain=7425.18 4958.03 7092.05 3725.57 1219.72 1082.95 992.38 925.411 790.877 716.729 659.977 618.602 506.42 409.996 310.962 308.129 306.673 305.526 304.503 288.76 264.662 261.276 225.981 222.536 222.181 211.569 206.2 181.625 177.873 176.31
threshold=0 1 2 3 4 5 6 7 8 9 10 11 12 13 14 15 16 17 18 19 20 21 22 23 24 25 26 27 28 29
decision_type=9 1 9 1 1 1 9 9 1 9 9 9 9 9 9 1 1 1 1 1 9 9 1 9 9 1 9 9 1 9
left_child=3 2 7 10 6 14 21 28 11 20 25 19 23 -12 -5 17 -13 -15 22 24 -4 29 27 -10 -9 -1 -16 -11 -2 -3
right_child=1 4 9 5 -6 -7 -8 8 12 18 13 16 -14 15 26 -17 -18 -19 -20 -21 -22 -23 -24 -25 -26 -27 -28 -29 -30 -31
leaf_value=0.14701506342233456 0.034416873959309424 0.0091168641458126264 0.011996003065448207 0.054890528894411164 -0.0021599202478840844 -0.01276210457299504 -0.00070402277039737892 0.058682344910110144 0.022993361094383838 0.0073092592176441529 0.032885785827616303 0.017300007206774336 0.0053128441552092783 0.12778664306306539 0.0019636802257169089 0.057982488550074311 0.0073062478821786653 0.070093244404936 1.424447735943447e-06 0.015564747976925853 0.0031754040014639173 0.0021450669505241444 0.00058029944925385552 0.010330797250661607 0.024729955532360785 0.089735759186655523 0.027015619964627965 0.0022937444075449283 0.020184234496870852 0.00258652067843353
leaf_weight=974 12272 106788 35523 3271 7119250 10303 6000506 2028 14819 80466 4744 42101 411720 1447 4224 11580 113635 2859 4613935 60060 799078 550284 1085250 220450 40096 2580 14955 702764 31516 67501
leaf_count=974 12272 106788 35523 3271 7119250 10303 6000506 2028 14819 80466 4744 42101 411720 1447 4224 11580 113635 2859 4613935 60060 799078 550284 1085250 220450 40096 2580 14955 702764 31516 67501
internal_value=2.3195e-06 -9.05644e-05 0.00184744 0.0360651 -0.00124765 0.0140733 -0.0002819 0.00998224 0.00929495 0.000792704 0.0658311 0.0139775 0.00742807 0.0588972 0.0263891 0.0666394 0.0100089 0.0897318 0.000437576 0.0200245 0.00355097 0.00321385 0.00151458 0.0111293 0.0263781 0.105802 0.0215021 0.00280911 0.02418 0.006588
internal_weight=2.2167e+07 2.211e+07 8.26571e+06 56937 1.38443e+07 32753 6.72508e+06 948697 904909 7.31702e+06 24184 257920 646989 20630 22450 15886 155736 4306 6.48242e+06 102184 834601 724573 1.86848e+06 235269 42124 3554 19179 783230 43788 174289
internal_count=22166979 22110042 8265713 56937 13844329 32753 6725079 948697 904909 7317016 24184 257920 646989 20630 22450 15886 155736 4306 6482415 102184 834601 724573 1868480 235269 42124 3554 19179 783230 43788 174289
cat_boundaries=0 19 20 44 45 46 47 74 101 102 129 157 181 205 233 262 263 264 265 266 267 294 318 319 347 375 376 404 431 432 433
cat_threshold=0 0 0 0 0 0 0 0 2048 0 0 0 0 0 0 0 268435456 0 8192 249600 18 0 64 10486080 49168 2181038080 8388608 0 16777216 606081040 0 0 536870916 0 0 64 33554433 4 16 0 0 1581056 0 9437184 1281792 1847488 2912448 1074266136 0 64 144703488 536887296 2181038080 8912960 0 16777216 2101248 8388608 0 536870912 0 524288 64 33554432 4 0 0 0 1581056 0 9437184 0 0 12 2 33579008 1024 0 67239936 138412032 5767424 67110912 160 8388608 0 32 0 0 0 2 0 8194 0 0 2147483648 1208090624 0 0 8208 4325408 2048 96 1078460416 0 268439680 1279590400 2 268435520 524288 4194304 65536 1073741824 8396800 0 256 0 0 0 2560 0 1064960 2048 67125248 0 0 0 268435584 0 4 8390656 2147483650 0 4 0 0 0 0 0 16 1024 8720 33554464 0 134217728 302321664 1073741824 12 0 92798977 603979784 0 0 0 0 0 3145728 2 16 0 64 2097152 0 0 0 0 0 4096 0 0 0 0 0 0 0 0 0 0 0 1572864 0 1048576 0 0 64 2097152 0 0 8388608 0 0 4096 0 0 0 0 0 0 0 4 0 0 0 1572864 0 1048576 0 0 268468736 536870912 0 0 0 8192 4096 0 6 65536 0 4096 0 0 0 0 65538 536872448 8454208 524548 4 0 192 2181038080 134217733 1114240 8390656 0 0 4 0 0 0 0 0 0 320 8704 33554432 0 134316032 33886208 1073741828 68 0 29360128 1946159104 32768 268435456 0 0 0 65536 131072 1 96 1536 1536 96 1792 262146 24576 1024 4194304 76152832 272629760 5767168 2048 1048704 8388608 0 0 2048 0 8388608 2 0 269492224 0 0 0 1207959616 0 16384 0 4325376 2048 0 0 64 2097152 0 33554432 0 0 0 4096 0 0 536870912 0 0 0 0 4 0 0 0 1048576 0 1048576 1792 1310720 0 134217728 4194304 8912900 268435456 5140 8224 268435456 0 8388608 0 0 32768 8404992 0 2149056512 1051648 0 0 0 65 1 16384 2147483648 4096 0 67108864 1048576 0 0 0 1118472 276824064 16 2155872288 268435456 0 0 67108864 0 33589760 67108864 1073750016 2416967682 8519680 1024 0 1 0 0 16384 2048 0 0 67108864 96 0 0 285213186 536870920 0 0 0 0 4096 0 262150 0 8388608 0 0 0 0 0 65536 1610613762 65600 525572 6 16777216 192 33555456 134217728 1048704 0 0 512 1048576 0 0 537133120 2147483657 16384 0 4096 134217728 14336 0 2 33554434 8913152 603980832 25165828 0 0 0 136314880 0 2 1024 8 96 1
is_linear=0
shrinkage=0.1


Tree=11
num_leaves=31
num_cat=23
split_feature=1 4 1 4 4 4 10 1 1 1 3 4 4 4 1 1 1 4 4 6 10 10 7 3 1 4 4 7 1 6
split_gain=5874.78 4034.16 5927.02 2966.24 1161.57 893.072 856.165 688.757 668.09 483.536 456.588 524.003 358.062 316.229 305.036 300.922 276.885 254.08 245.912 240.284 237.199 234.292 231.472 224.146 215.266 186.366 176.539 174.299 170.311 156.649
threshold=0 1 2 3 4 5 1.0000000180025095e-35 6 7 8 9 10 11 12 13 14 15 16 17 20.195000648498539 1.0000000180025095e-35 1.0000000180025095e-35 59.98500061035157 18 19 20 21 75.125000000000014 22 24.204999923706058
decision_type=9 1 9 1 1 1 2 9 9 9 1 1 1 1 9 9 9 1 1 2 2 2 2 1 9 1 1 2 9 2
left_child=3 12 4 10 6 24 9 22 18 -3 11 27 15 -9 -12 -2 23 20 21 -16 -10 -4 -8 -6 -5 -11 -21 -1 -22 -24
right_child=1 2 8 5 16 -7 7 13 17 25 14 -13 -14 -15 19 -17 -18 -19 -20 26 28 -23 29 -25 -26 -27 -28 -29 -30 -31
leaf_value=0.14016818176848272 0.001770954025758123 0.01236772161700217 0.0025982944414203032 0.034533676037459639 0.011169386049510585 -0.0062979254892222732 -0.0021199879482818843 0.017672341688747085 0.00019064025331342127 0.0087014556404569603 0.031592794814839113 0.050651192174094806 -0.0021120626665596274 0.0086854811802649541 0.022494587795543405 -0.0011624468143562078 0.0031626089032740579 -0.00026649978672799445 0.0014121280123960531 0.048724090994699994 0.0066744212842172815 0.0072187605572590005 0.030974433238796319 0.005311673191346445 0.01069233935495675 0.0030637246872846141 0.076258655585172377 0.092834640207357391 0.0018018600407644842 0.018636828110425586
leaf_weight=1200 385865 145357 312312 12566 91114 14062 2835 66824 1597555 92523 5668 2892 5685066 94756 1482 3731874 470159 7076933 882330 4009 78933 169202 34270 231068 5463 160173 6212 2212 786082 14708
leaf_count=1200 385865 145357 312312 12566 91114 14062 2835 66824 1597555 92523 5668 2892 5685066 94756 1482 3731874 470159 7076933 882330 4009 78933 169202 34270 231068 5463 160173 6212 2212 786082 14708
internal_value=-2.42318e-06 -8.41914e-05 0.00112134 0.032411 0.00723734 0.0125912 0.0105119 0.0156228 0.000333912 0.0077723 0.0592597 0.0824425 -0.0015977 0.012403 0.050804 -0.00088756 0.00471025 3.7935e-05 0.00240413 0.0600735 0.000912817 0.00422182 0.0256564 0.00696855 0.0273194 0.00512821 0.065581 0.109162 0.00224658 0.0272695
internal_weight=2.21657e+07 2.21099e+07 1.23071e+07 55766 1.40379e+06 32091 611446 213393 1.09033e+07 398053 23675 6304 9.8028e+06 161580 17371 4.11774e+06 792341 9.5395e+06 1.36384e+06 11703 2.46257e+06 481514 51813 322182 18029 252696 10221 3412 865015 48978
internal_count=22165705 22109939 12307134 55766 1403787 32091 611446 213393 10903347 398053 23675 6304 9802805 161580 17371 4117739 792341 9539503 1363844 11703 2462570 481514 51813 322182 18029 252696 10221 3412 865015 48978
cat_boundaries=0 19 20 44 45 46 47 71 98 122 123 124 125 126 145 172 196 197 198 199 208 209 210 234
cat_threshold=0 0 0 0 0 0 0 0 2048 0 0 0 0 0 0 0 0 0 8192 16253055 18 0 64 10486080 49168 2181038080 8388608 0 16777216 606081040 0 0 536870916 0 0 64 301989889 4 16 0 0 1581056 0 9437184 1281792 100096 2912384 16 0 0 0 0 0 0 0 0 4096 0 0 0 0 0 0 268435456 0 0 0 0 524288 0 1048576 1078460416 0 4224 1279524864 536870912 268435520 524352 0 65536 1073741824 8396800 0 256 0 0 2 0 32 1064960 2048 67125248 0 0 0 268435584 1024 12 0 0 64 2097152 0 0 8388608 0 0 4096 0 0 536870912 0 0 0 268435456 0 0 0 0 1572864 0 9437184 96 1792 7864384 1536 0 0 0 0 0 0 0 0 0 0 0 0 0 0 0 0 0 0 8192 1073741832 0 64 10485760 536887296 33554432 8912960 0 0 4096 8388608 536870920 536870912 2181038080 524288 0 805306368 4 0 0 16 1048576 4 1048576 0 65540 524301 16 0 64 2097152 0 0 0 0 0 4096 0 0 0 0 0 0 268435456 4 0 0 0 1581056 0 1048576 67072 67328 96 0 0 0 0 0 0 0 0 2048 98304 133376 0 262144 268435968 1114112 2 0 536870920 2151677965 24576 0 4096 671088640 0 2147483648 2 0 545786400 603979776 25165824 0 0 0 134217728 16
is_linear=0
shrinkage=0.1


Tree=12
num_leaves=31
num_cat=25
split_feature=1 4 1 4 4 1 3 1 1 4 4 2 4 1 4 1 1 2 5 6 1 4 10 2 1 2 4 2 5 5
split_gain=4835.31 3333.86 4682.28 2516.19 782.291 669.913 649.923 557.009 535.217 516.976 455.169 350.295 325.473 320.645 249.934 245.055 219.464 204.814 198.716 192.786 175.906 199.369 172.475 172.135 165.978 159.606 157.805 150.796 203.502 212.72
threshold=0 1 2 3 4 5 6 7 8 9 10 11 12 13 14 15 16 17 0.99950000643730175 22.125000000000004 18 19 1.0000000180025095e-35 20 21 22 23 24 0.8753499984741212 0.83650001883506786
decision_type=9 1 9 1 1 9 1 9 9 1 1 9 1 9 1 9 9 9 2 2 9 1 2 9 9 9 1 9 2 2
left_child=3 2 6 7 5 17 10 12 25 -5 -2 16 19 23 22 27 -8 20 -15 -1 21 -3 -9 -10 -20 -4 -18 28 29 -12
right_child=1 4 8 9 -6 -7 11 14 13 -11 15 -13 -14 18 -16 -17 26 -19 24 -21 -22 -23 -24 -25 -26 -27 -28 -29 -30 -31
leaf_value=0.050635345281093293 0.020358723860314985 0.020787930247793109 0.0044278118503626139 0.017583642566234202 -0.0017573834327918416 -0.00057698074060700676 0.011133780386755738 0.03665713858412236 0.0038503916690401149 -0.010078593889654019 0.017537924430261951 0.0022923213847514238 0.046533510854258477 0.00074447581859366288 0.020246914388615138 0.0069566607879144281 0.0107099280602819 0.0013080827389650425 0.001431548436969616 0.082743435226096923 0.0034096054674831893 0.0067731927574782363 0.083209025077393112 0.00098822237453819622 -0.00073484698650749087 0.0013059500659793532 0.0052712913745683633 0.0046615512381989735 0.013356365928710085 0.041549666398298553
leaf_weight=2750 63562 12325 461881 16776 7118600 6086630 163632 2387 377693 11300 10019 128734 11752 3032841 8127 92481 70023 372378 413933 5844 197576 57585 1194 473654 2428107 253769 224474 12857 49275 5840
leaf_count=2750 63562 12325 461881 16776 7118600 6086630 163632 2387 377693 11300 10019 128734 11752 3032841 8127 92481 70023 372378 413933 5844 197576 57585 1194 473654 2428107 253769 224474 12857 49275 5840
internal_value=-9.94214e-07 -7.80237e-05 0.00151157 0.0283156 -0.00102669 -0.000253408 0.00867893 0.0474591 0.000720938 0.00645055 0.0131349 0.00690174 0.0574831 0.000444313 0.0300052 0.0104404 0.00819691 0.0028245 0.000181478 0.0723849 0.00493544 0.00924658 0.0520335 0.00225803 -0.000419317 0.00332084 0.00656476 0.01457 0.0165249 0.0263801
internal_weight=2.2168e+07 2.21079e+07 8.26278e+06 60130 1.38451e+07 6.72649e+06 820897 32054 7.44188e+06 28076 234034 586863 20346 6.72623e+06 11708 170472 458129 639864 5.87488e+06 8594 267486 69910 3581 851347 2.84204e+06 715650 294497 77991 65134 15859
internal_count=22167999 22107869 8262775 60130 13845094 6726494 820897 32054 7441878 28076 234034 586863 20346 6726228 11708 170472 458129 639864 5874881 8594 267486 69910 3581 851347 2842040 715650 294497 77991 65134 15859
cat_boundaries=0 24 25 49 50 51 78 79 88 115 116 117 118 119 146 147 169 191 192 219 220 221 249 250 251 252
cat_threshold=0 0 0 0 0 0 0 0 2048 0 0 0 0 0 0 0 268435456 0 8192 0 0 0 0 1048576 249600 18 0 64 144703808 32768 2181038080 8388608 0 16777216 538972160 0 0 536870916 0 0 0 1 4 16 0 0 1581056 0 8388608 1302272 1847488 1073741848 0 64 10485760 536887296 2181038144 8912960 0 16777216 2101248 8388608 0 536870912 0 0 0 536870912 4 0 0 0 1581056 0 8388608 0 0 12 96 0 0 0 0 0 0 0 0 2048 1078460416 0 268435584 1078263808 16400 64 524352 4194312 65536 1140850704 8388608 0 256 0 0 64 33556992 0 1048576 2056 67108864 0 0 0 128 0 4 2891968 1536 73287 99840 0 266752 4608 68157440 2 268435456 2684354560 4 0 268435460 8192 134217728 0 2147485696 0 33554434 536870944 32 8404992 0 16384 0 256 2097168 268435456 1024 8 132608 16 0 64 2097152 0 0 0 0 0 4096 0 0 0 0 0 0 0 0 0 0 0 1572864 0 0 64 2097152 0 0 0 0 0 2101248 0 0 0 0 0 0 0 4 0 0 0 524288 1025 0 0 0 2097152 16384 33554432 0 0 0 4096 0 0 0 0 0 0 536870912 4 0 0 0 0 0 0 0 0 8 128 517 33554433 8192 0 16777216 0 1073742336 512 2147549217 0 33693760 4096 537135104 8192 0 9216 16384 8388608 0 2164260868 4 0 2048 134217728 8192 0 0 0 1 66627 98304 104545
is_linear=0
shrinkage=0.1


Tree=13
num_leaves=31
num_cat=28
split_feature=1 4 1 4 0 4 4 1 0 1 0 10 4 10 0 1 1 0 1 0 0 0 0 1 0 1 0 4 0 0
split_gain=3848.29 2716.33 3862.6 1972.58 805.757 640.008 638.307 551.464 492.22 448.307 426.748 410.391 384.513 357.235 283.768 261.005 260.406 250.812 230.058 218.5 211.134 187.175 183.869 182.777 180.679 175.352 150.296 146.178 138.846 138.092
threshold=0 1 2 3 4 5 6 7 8 9 10 1.0000000180025095e-35 11 1.0000000180025095e-35 12 13 14 15 16 17 18 19 20 21 22 23 24 25 26 27
decision_type=9 1 9 1 9 1 1 9 9 9 9 2 1 2 9 9 9 9 9 9 9 9 9 9 9 9 9 1 9 9
left_child=3 2 4 -1 -2 13 7 22 -6 19 -7 16 21 28 -15 24 26 -12 20 -4 -14 -13 -3 -17 -11 -25 -10 -16 -5 -23
right_child=1 6 9 5 8 10 -8 -9 11 15 17 12 18 14 27 23 -18 -19 -20 -21 -22 29 -24 25 -26 -27 -28 -29 -30 -31
leaf_value=-0.0029887450613286775 0.023212911681718126 0.010457275472213749 0.011809630340578159 0.081227404323692728 0.01917535795347999 0.0062254432193832969 -0.0015833779841060765 -0.00052257743114772655 0.018111353230143384 0.0096961213876426925 0.058426713871136585 0.04340874981722026 0.052380564034177568 0.14801496030574665 0.084155573014560878 0.0015751232174806328 0.0030391836838973073 0.031755523874161612 0.0058751660491409086 0.0027574976542169807 0.013175591514773792 0.036259673305430985 0.0021770684869655116 0.0012549877745059136 0.0018208044045339483 -0.00029272053310289706 0.0070364440522243032 0.028680560552432999 0.039901822972239168 0.014372125595973038
leaf_weight=16534 33201 28008 27823 976 33398 5759 7125180 6068613 13090 30282 4334 2466 1422 615 2228 822939 275938 19821 148286 637088 35479 3020 627180 882259 761796 4298929 192030 648 5572 63682
leaf_count=16534 33201 28008 27823 976 33398 5759 7125180 6068613 13090 30282 4334 2466 1422 615 2228 822939 275938 19821 148286 637088 35479 3020 627180 882259 761796 4298929 192030 648 5572 63682
internal_value=-1.14918e-06 -6.77473e-05 0.00136712 0.0260644 0.00796153 0.0380854 -0.000923877 -0.000225006 0.00730261 0.000658266 0.0307266 0.00676317 0.010012 0.0599605 0.0858554 0.000415806 0.00504553 0.0365632 0.00763436 0.00313645 0.0147002 0.0163742 0.00253119 0.000190718 0.002122 -2.9173e-05 0.00774405 0.071799 0.0462465 0.0153684
internal_weight=2.21686e+07 2.21121e+07 8.26313e+06 56487 802012 39953 1.3849e+07 6.7238e+06 768811 7.46112e+06 29914 735413 254355 10039 3491 6.7962e+06 481058 24155 185187 664911 36901 69168 655188 6.00413e+06 792078 5.18119e+06 205120 2876 6548 66702
internal_count=22168596 22112109 8263128 56487 802012 39953 13848981 6723801 768811 7461116 29914 735413 254355 10039 3491 6796205 481058 24155 185187 664911 36901 69168 655188 6004127 792078 5181188 205120 2876 6548 66702
cat_boundaries=0 19 20 44 45 72 73 74 101 129 156 184 185 213 240 264 293 317 344 369 397 424 449 476 502 530 531 559 587
cat_threshold=0 0 0 0 0 0 0 0 2048 0 0 0 0 0 0 0 268435456 0 8192 249600 18 0 64 10486080 0 2181038080 8388608 0 16777216 538972160 0 0 0 0 0 0 1 4 16 2048 0 1581056 0 9437184 15204479 262146 24832 3072 4194304 67244032 138412032 5767424 67110912 0 0 67108864 0 0 0 16384 8194 2147483648 0 0 0 2151677952 1207959552 0 0 8192 4325376 2048 67072 1847488 1074266136 0 64 1084227584 603996160 2181038080 8912960 0 16777216 1075843072 8388608 0 536870912 0 0 0 570425344 4 0 0 0 1581056 0 9437184 0 0 12 0 33554432 0 0 2621448 268435456 1073741840 33562626 9376 8388608 0 4128 0 0 8388608 0 270008320 1189890 0 0 0 131136 0 16384 16 32 0 2048 1074266112 0 128 1212219392 49170 64 524352 4194304 65536 1140850704 8396800 0 536871172 0 0 64 33556992 0 0 0 67125248 0 0 0 128 0 4 134217728 0 285213184 536870920 0 0 0 0 4096 0 2147745798 65536 0 4096 0 0 0 0 65536 1610613760 65600 524548 6 0 192 33555456 134217732 1048704 1536 8390656 2147483650 4 4 256 0 0 0 0 16 0 0 301989920 0 32768 34148352 1073742080 0 0 1084227584 1073741864 2097664 2 0 0 1024 2150629376 4 4194304 266240 335548928 68419584 0 268435456 536870912 12 0 268566528 0 134217728 0 2147485696 0 33554434 536871168 32 9453568 8 0 0 0 16 268435456 1024 8 0 0 64 2097152 0 0 8388608 0 0 4096 0 0 0 0 0 0 0 4 0 0 0 1581056 0 1048576 8390672 2147483648 8388608 4 0 0 0 0 0 0 0 512 33554464 0 134217728 302317568 1073741824 65608 0 88080384 1979713536 0 268435456 0 0 0 0 294914 1 16 0 0 0 0 0 0 0 0 0 0 0 0 0 0 0 0 0 0 0 0 1572864 0 1048576 2 33571328 1024 37748736 67239936 4194304 1573136 0 1048704 8388608 0 0 0 256 16384 2 2148007936 270016512 0 0 0 134217728 0 16384 0 4325408 2048 0 268435456 9437184 0 268435712 8396801 0 0 0 16384 134217728 1024 16384 69206016 2487222272 1478657024 16392 301989889 1048576 0 0 0 0 0 2147483648 268435968 528 1 0 9437440 0 1028 10616832 268435968 128 0 67125248 0 768 67112960 512 32 0 1024 0 0 538968064 16 0 536870912 2048 16777216 2097152 262146 33579776 0 4194304 67764224 406847488 5767168 67110912 128 8388608 8388608 0 0 32768 0 0 524288 2048 0 0 0 134217728 0 16384 131072 4329472 2048 1 512 0 2164260864 536936448 512 2147483648 65569 0 8196 4096 536872960 0 33554432 2 1064960 8912928 33792 16777216 0 0 3072 134217984 2097152 2 262146 268443648 0 4194304 276955144 12582912 1049680 2147485696 128 0 8388608 0 134217728 40960 0 2 0 11266 0 0 0 1073741825 32 0 0 131072 2048 2097160 8192 0 2 67108864 1082130432 33282 2147483664 0 4194568 8 262144 8200 1024 524288 0 1024 8388608 4 10485764 0 0 0 73728 2129920 16 537921536 0 134217728 0 8388608 1 142607396 1056 268435456 8192 8388608 0 134219776 67141632 0 0 32 1024 1024 0 1 8388609 262145 0 2147483648 4096 32768 2097152 1536 10487824 2 8388612 612 0 0 0 0 0 0 0 8704 32 0 134217760 33554432 1073741824 68 0 2164785153 603981824 0 0 0 0 0 3276800 262144 33554433 2 134225920 0 128 8388609 32 0 0 524288 0 536870912 134217728 262212 138412032 0 536870913 276824064 8388608 1048576 1 8388608 67372032 0 2048 4160 0 256
is_linear=0
shrinkage=0.1


Tree=14
num_leaves=31
num_cat=27
split_feature=1 4 1 4 0 4 1 4 0 10 1 0 0 3 1 4 0 0 0 1 0 2 1 10 4 10 0 1 0 0
split_gain=3185.84 2248.52 3144.73 1746.55 619.283 611.434 655.14 503.39 463.393 445.345 388.448 302.452 290.241 284.745 249.776 241.632 217.85 214.409 203.983 202.422 282.093 218.23 167.957 160.959 323.351 155.117 150.654 150.534 149.843 126.182
threshold=0 1 2 3 4 5 6 7 8 1.0000000180025095e-35 9 10 11 12 13 14 15 16 17 18 19 20 21 1.0000000180025095e-35 22 1.0000000180025095e-35 23 24 25 26
decision_type=9 1 9 1 9 1 9 1 9 2 9 9 9 1 9 1 9 9 9 9 9 9 9 2 1 2 9 9 9 9
left_child=3 2 4 8 25 6 17 16 -1 14 18 -11 -10 22 28 27 -5 -3 -4 20 -17 -22 -12 -14 29 -2 -19 -13 -6 -25
right_child=1 5 10 7 9 -7 -8 -9 12 11 13 15 23 -15 -16 19 -18 26 -20 -21 21 -23 -24 24 -26 -27 -28 -29 -30 -31
leaf_value=0.076763526927098535 0.017242809183183192 0.0097633221636658843 0.012277277012252251 0.04083034306155689 0.018880898856415931 -0.0013363221129027618 -0.00042056551879389404 -0.0086898561598023581 0.01596160460261338 0.028993293693036149 0.0043489785100020726 0.011445151096518469 0.036901490770164927 3.650828115837e-05 0.0028039321792866657 0.071024704787643292 0.012981354494217121 0.0083819737234825924 0.0027859049847645911 0.010983202178017275 -0.0026452785082479663 0.022890081796004075 0.0012098197920527238 0.12319165089328124 0.033110591163980081 0.033168558965525043 0.0019225520893557458 0.004007478003796759 0.0070693440908663006 0.069531572317558535
leaf_weight=3515 17926 39788 23578 3265 11320 8272427 5762877 11464 4884 8838 191617 45074 11273 4257313 201115 1079 20096 37952 566635 74938 3955 21919 1541974 611 2785 9283 740001 68747 209555 2194
leaf_count=3515 17926 39788 23578 3265 11320 8272427 5762877 11464 4884 8838 191617 45074 11273 4257313 201115 1079 20096 37952 566635 74938 3955 21919 1541974 611 2785 9283 740001 68747 209555 2194
internal_value=3.25276e-06 -5.92502e-05 0.00138375 0.0229963 0.00789065 -0.000764075 -4.47077e-05 0.00846893 0.0430117 0.00726842 0.000717589 0.0108664 0.0375236 0.000476443 0.00535403 0.0101219 0.0168894 0.00260405 0.00316527 0.0136602 0.0210961 0.0189873 0.00155682 0.0437554 0.0576554 0.0226679 0.00223778 0.0069536 0.00767552 0.0816162
internal_weight=2.2168e+07 2.21079e+07 7.25487e+06 60087 673749 1.4853e+07 6.58062e+06 34825 25262 646540 6.58112e+06 224550 21747 5.9909e+06 421990 215712 23361 817741 590213 101891 26953 25874 1.73359e+06 16863 5590 27209 777953 113821 220875 2805
internal_count=22167998 22107911 7254866 60087 673749 14853045 6580618 34825 25262 646540 6581117 224550 21747 5990904 421990 215712 23361 817741 590213 101891 26953 25874 1733591 16863 5590 27209 777953 113821 220875 2805
cat_boundaries=0 24 25 49 50 77 78 105 106 135 162 190 218 219 241 242 271 299 326 336 364 365 391 392 420 442 470 498
cat_threshold=0 0 0 0 0 0 0 0 2048 0 0 0 0 0 0 0 268435456 0 8192 0 0 0 0 1048576 233216 16 0 64 1075839296 0 2181038080 8388608 0 16777216 538972160 0 0 536870912 0 0 0 33554433 4 16 2048 0 1581056 0 8388608 1281792 2 24832 1024 4194304 1140981760 406847488 4718596 67110912 268435456 0 67108864 0 0 0 16384 2 0 8192 0 0 2151677952 1207959552 16 16384 8192 4325376 2048 1863808 1073741850 0 64 144703744 67158032 2181038080 8912896 0 16777216 69210128 8388608 0 0 0 524288 64 0 4 0 0 0 1581056 0 0 0 4 12 2912448 2048 2147483650 4 512 0 0 0 0 0 16 0 8704 32 0 134217728 302845952 1073873156 65548 0 17301504 1677721600 0 0 0 0 0 1048576 34 1 524290 0 268435584 147128320 49168 64 537395264 0 65536 1140850704 8192 0 260 0 0 64 2560 0 16384 8 67125248 0 0 0 128 0 4 0 4194304 2049 0 1573120 0 1074791424 33562624 9248 8388608 0 67108896 0 4 545259520 0 2147483648 1179650 1024 0 0 2228288 0 0 2064 4096 0 67108864 0 0 285246208 536870912 32 0 262144 0 4096 0 2147483650 65536 8192 0 524288 0 65536 0 65538 536871936 64 524548 4 0 192 33554432 134217732 269484160 96 0 0 64 2097152 0 2147483648 8388608 0 0 4096 0 0 0 0 0 0 0 4 0 0 0 1581056 231424 8390656 0 0 4 0 0 0 0 0 0 0 8704 0 0 134316032 34410496 1073872896 68 0 20971521 1979713536 32768 268435456 0 0 0 65536 150994944 1 262146 16896 0 0 69734408 138412032 1573120 67110912 32 25165824 8388608 0 0 0 8388608 2 1048576 1056768 0 0 2147483648 134217728 262144 0 8192 4194304 2048 2048 2 24576 1024 33554432 335544320 4194304 524544 0 268435456 8388608 67108864 536903680 0 0 8404992 0 2149580800 270016512 0 0 2147483648 1073741824 16 16384 16 4325408 2048 16 0 0 0 0 0 0 0 0 4096 520 0 9437184 4 0 8388616 18 2160066560 0 0 0 0 16384 0 1207959552 1141809152 301989898 276824064 32 0 0 0 1024 0 0 32 0 2048 8332 4194312 262144 4608 68157440 67108866 268435968 0 4194312 16384 0 8392704 134217728 0 2181038080 2 0 8913184 536870912 26214400 0 0 0 134217728 0 268435456 1028 1792 1048576 33554432 0 4194304 16908804 268435457 4195332 2098208 268435456 0 0 4128 0 67141632 0 8192 268959744 133120 1048576 0 1 65 0 16384 0 4096 0 256 16 0 64 2097152 0 0 0 0 0 0 0 0 0 0 0 0 0 0 0 0 0 1572864 262144 33554432 134217728 0 4 0 1209008384 35651622 160 8392704 8388608 67108864 0 33024 8388608 0 524288 3072 0 0 0 1 1 0 2147483664 32768 0 2097408 4194304 0 41943040 4 256 0 0 0 0 0 1280 0 268435456 0 98304 0 67108864 16777216 0 2149580801 2088 2130432 67108864 0 0 1073742848 2162688 4194304
is_linear=0
shrinkage=0.1


Tree=15
num_leaves=31
num_cat=27
split_feature=1 4 1 4 0 4 1 0 4 0 2 6 0 1 4 5 4 1 1 2 0 3 1 2 3 4 1 5 0 0
split_gain=2587.92 1873.7 2866.37 1345.01 575.949 447.068 431.269 350.67 368.553 303.613 269.279 263.74 240.648 237.979 365.892 230.945 230.712 253.081 228.152 208.821 225.84 217.466 224.448 208.187 192.223 226.026 192.069 184.045 179.571 171.668
threshold=0 1 2 3 4 5 6 7 8 9 10 19.654999732971195 11 12 13 0.99950000643730175 14 15 16 17 18 19 20 21 22 23 24 0.56250000000000011 25 26
decision_type=9 1 9 1 9 1 9 9 1 9 9 2 9 9 1 2 1 9 9 9 9 1 9 9 1 1 9 2 9 9
left_child=3 2 4 -1 -2 12 9 -5 11 -4 13 -9 -6 14 -7 18 -3 -18 27 -14 -21 22 29 -11 25 -13 -17 -8 -12 -22
right_child=1 16 6 7 5 10 15 8 -10 23 28 24 19 -15 -16 26 17 -19 -20 20 21 -23 -24 -25 -26 -27 -28 -29 -30 -31
leaf_value=-0.0016872258825259027 0.017534443157107397 -0.0014353984335918305 0.0090822643324657733 0.019699615191909974 0.020847307760761057 0.028357374281881634 0.018338217679068302 0.0094205390689708537 0.033310186477946778 0.0029571982739928556 0.010788533215128784 0.11407399890233581 -0.0016826570920780576 0.004977652389467944 0.0068776333441157526 0.0012123339098142893 0.002030639088566182 -0.0007035705371517424 0.00038216597240785499 -0.0038851158001160704 0.070987350067497818 0.0071078099844988467 0.010611720049930811 0.00025182203037011291 0.056870315696085486 0.0411057135452393 -0.00066930476918997919 0.0025877847883778986 0.0015003227054250024 0.021394761784227209
leaf_weight=12162 40091 5688166 59389 7268 14184 11566 7563 873 10836 637775 22078 1534 22853 232426 25253 630284 365599 4570648 4305084 14795 727 230498 76318 513444 5341 639 3893744 389317 361392 15033
leaf_count=12162 40091 5688166 59389 7268 14184 11566 7563 873 10836 637775 22078 1534 22853 232426 25253 630284 365599 4570648 4305084 14795 727 230498 76318 513444 5341 639 3893744 389317 361392 15033
internal_value=1.38485e-06 -4.37796e-05 0.000840537 0.0258507 0.00577678 0.00531769 0.000335767 0.0384892 0.0455793 0.00211035 0.00373743 0.0613725 0.00807241 0.00616145 0.013631 0.000102909 -0.00100129 -0.00050106 0.000593671 0.00756882 0.00819554 0.00874972 0.0128587 0.00175061 0.0674901 0.0929033 -0.000407155 0.00288785 0.00203535 0.023726
internal_weight=2.21669e+07 2.21282e+07 1.15038e+07 38653 1.06721e+06 1.02712e+06 1.04366e+07 26491 19223 1.21061e+06 652715 8387 374408 269245 36819 9.22599e+06 1.06244e+07 4.93625e+06 4.70196e+06 360224 337371 322576 92078 1.15122e+06 7514 2173 4.52403e+06 396880 383470 15760
internal_count=22166880 22128227 11503814 38653 1067214 1027123 10436600 26491 19223 1210608 652715 8387 374408 269245 36819 9225992 10624413 4936247 4701964 360224 337371 322576 92078 1151219 7514 2173 4524028 396880 383470 15760
cat_boundaries=0 9 10 34 35 63 64 91 119 120 147 148 174 198 199 200 227 253 254 282 283 307 308 309 310 334 362 390
cat_threshold=0 0 0 0 0 0 0 0 2048 262016 18 0 64 2097408 16384 2147483648 8388608 0 16777216 538972160 0 0 536870912 0 0 0 301989888 4 8208 0 0 1581056 0 9437184 14942335 262658 24578 4 0 67239944 138412032 524304 67110912 268435456 0 0 0 0 32768 0 8194 524288 1026 0 0 2151677952 1075838976 0 0 8192 4325376 2048 2048 99840 1078460416 0 128 1287913536 536903696 33554496 64 0 0 1140850704 0 0 4 0 0 66 1 32 1048576 2048 0 0 256 0 268435584 1024 4 1024 0 16875536 0 32 0 0 0 4096 0 2148007942 0 0 536875008 2048 2048 65536 0 33554432 33558210 8388608 0 0 2 0 2147483648 5 269484033 100096 262146 9216 0 4194304 344064008 415236096 5243152 2048 128 0 8388608 0 0 256 0 2 1048576 10242 0 0 0 1 33554432 0 8192 131072 2048 1 0 16 3072 0 524544 1 1074790688 33554434 32 16777216 67108896 4128 0 0 536887296 0 2416967680 1187840 0 524288 0 134348800 16 16384 0 32 2 0 0 0 16384 0 0 0 0 4096 0 0 0 0 0 0 268435456 4 0 0 0 0 0 1048576 384 8388671 1073741832 0 64 10485760 536870912 33554432 524288 0 16777216 2101248 8388608 0 0 2181038080 524288 0 805306368 4 24576 0 128 1581056 4 9437184 0 65540 524300 8 576 67112960 1114112 65536 268435456 0 4259848 512 0 8396808 134217728 0 64 524290 0 536872992 67108864 16793600 0 16416 0 0 2162704 0 2147483648 136 32768 0 318767104 0 0 32800 0 0 16781328 33554432 6 0 2147491840 536936448 65536 536870912 69632 1073741824 8192 1536 8388608 268439554 0 0 1048832 0 4 1048576 96 16 0 0 0 0 0 0 0 0 0 0 0 0 0 0 0 268435456 0 8192 0 0 8192 0 1048576 1029 96 1792 1 4096 268435456 0 2 1073742336 524800 65576 0 268443712 1024 264192 12544 2147485696 0 16384 2080 0 2155872260 0 603979776 2048 0 16 1048576 0 2048 0 256 0 1073741824 35651650 1568 128 67108896 20520 1081344 4 20480 0 2148532224 1179648 0 2621440 0 1 0 0 0 32 0 4096 4 134217728 1048576 0 285216768 8200 4194306 4194304 0 128 0 67109888 16384 0 1409286400 131072 574619658 0 32 0 8 64 2147484672 0 0 0 0 536870912
is_linear=0
shrinkage=0.1


Tree=16
num_leaves=31
num_cat=25
split_feature=1 4 1 4 0 4 1 2 4 0 0 10 10 4 1 1 6 0 0 0 2 0 4 10 4 4 1 1 5 0
split_gain=2095.15 1552.68 2045.5 1159.81 516.577 396.554 394.239 375.484 347.842 340.621 336.478 326.175 294.168 301.752 317.912 240.533 282.678 229.355 225.505 211.816 183.124 166.736 155.747 142.889 189.709 137.399 230.868 137.199 136.78 134.126
threshold=0 1 2 3 4 5 6 7 8 9 10 1.0000000180025095e-35 1.0000000180025095e-35 11 12 13 24.855000495910648 14 15 16 17 18 19 1.0000000180025095e-35 20 21 22 23 0.71250000596046459 24
decision_type=9 1 9 1 9 1 9 9 1 9 9 2 2 1 9 9 2 9 9 9 9 9 1 2 1 1 9 9 2 9
left_child=3 2 4 9 -2 -3 20 10 21 23 -6 25 27 -14 -15 16 17 -13 -9 -11 -7 -5 -17 -1 -25 26 -12 -4 -8 -19
right_child=1 5 12 8 7 6 28 18 -10 19 11 15 13 14 -16 22 -18 29 -20 -21 -22 -23 -24 24 -26 -27 -28 -29 -30 -31
leaf_value=0.049582601705451423 0.019915133467960547 -0.0012296645014262904 0.0019496184469128723 0.039351335813721522 -0.0031592630365248884 0.0035637637767960656 0.0010879718601711885 0.01241223968072161 -0.0038720923065521072 0.011280787594562254 0.014652990334954803 0.071656421704149445 0.00044423501609949768 0.0079957211864090383 0.0021808008283427795 0.015539761886379042 0.0013047114523751851 -0.0093808091895463373 0.00077359181386756428 0.03529072377514629 0.00067732210754887774 0.01224011903409503 0.0078221282532450805 0.12715735078478854 0.043674606898225873 0.0088915669719057521 0.0029954586976728148 -4.6214425189576623e-05 -0.00054847429213233012 0.026781371857836408
leaf_weight=2339 27386 6394353 377677 2658 28193 347561 551232 18584 16367 4706 19157 1092 1216697 103849 992918 37636 5436 1098 159077 17292 597927 15464 85984 668 516 107689 149661 3911675 6956846 15647
leaf_count=2339 27386 6394353 377677 2658 28193 347561 551232 18584 16367 4706 19157 1092 1216697 103849 992918 37636 5436 1098 159077 17292 597927 15464 85984 668 516 107689 149661 3911675 6956846 15647
internal_value=1.19226e-06 -4.94636e-05 0.00114908 0.0186594 0.00647194 -0.000635455 -0.000185989 0.00588657 0.00669526 0.0348188 0.00741878 0.0081232 0.000619716 0.00152858 0.00273146 0.0119314 0.0212593 0.0273525 0.00199167 0.0301618 0.0017384 0.0162361 0.0101728 0.0637303 0.0922175 0.00610039 0.00431911 0.000129523 -0.000428328 0.024406
internal_weight=2.21674e+07 2.21074e+07 7.25946e+06 60010 656640 1.48479e+07 8.45357e+06 629254 34489 25521 451593 423400 6.60282e+06 2.31346e+06 1.09677e+06 146893 23273 17837 177661 21998 945488 18122 123620 3523 1184 276507 168818 4.28935e+06 7.50808e+06 16745
internal_count=22167385 22107375 7259456 60010 656640 14847919 8453566 629254 34489 25521 451593 423400 6602816 2313464 1096767 146893 23273 17837 177661 21998 945488 18122 123620 3523 1184 276507 168818 4289352 7508078 16745
cat_boundaries=0 24 25 49 50 78 79 106 107 108 137 158 159 184 185 208 235 263 264 293 294 295 296 309 336 360
cat_threshold=0 0 0 0 0 0 0 0 2048 0 0 0 0 0 0 0 268435456 0 8192 0 0 0 0 1048576 233216 16 0 64 136314944 16 2181038080 8388608 0 16777216 538972160 0 0 536870916 0 0 0 33554433 4 16 2048 0 1581056 0 8388608 1281792 2 24576 2048 0 67764224 272629760 5767168 67110912 0 8388608 0 0 0 32768 0 2 268435456 1187842 0 0 2151677952 1207959552 0 0 8208 4325376 2048 2048 12582975 1073741848 0 64 144703488 536887312 2181038080 8388672 0 16777216 2101248 8389632 536870912 536870912 0 0 16386 0 8388612 0 2048 0 1581056 0 8388608 0 0 12 87623 815232 8390656 2147483648 4100 4 256 0 0 0 0 16 0 512 32 0 134250496 302317568 260 12 0 69730304 1677723656 0 0 0 0 0 3145728 4 1 16777216 0 318767104 67108864 4194304 32800 262144 0 16781328 33554432 197636 2105344 2147491840 536870912 65568 0 134230272 1090519040 0 1024 512 231424 524290 0 268436096 1073807616 32768 64 537395264 8 65536 1073741840 8192 134217728 8448 0 0 64 2560 536870944 17825792 8 0 0 134217728 0 268435584 16 0 167772160 1048576 0 285217288 8454144 2 2686451712 134217760 16384 0 0 16384 0 2285895680 139264 33554434 0 1048608 1048576 1 0 1024 1247744 2147483648 0 4 2304 0 0 0 0 0 67108864 0 32 16384 256 1073741824 3670017 0 512 0 0 606208001 67108880 2048 536873472 2048 32 0 0 268468736 0 0 0 262144 0 4096 0 2147483650 65536 8192 4096 524288 0 65536 0 65538 536872448 0 524548 4 0 192 2181038080 134217733 269484161 1 2080 0 8388608 4 0 0 0 0 0 16 0 8704 32 0 134316032 302776320 1073741824 76 0 58720256 1946159104 8 268435456 0 0 0 0 262146 1 1536 1792 3840 0 0 0 0 0 0 0 0 0 4096 0 0 536870912 524299 266240 4096 1082130688 536985600 268435456 524352 4194308 0 67108880 0 0 256 0 0 66 536872960 32 0 0 16384 0 256 0 128 0 12 0 104674 0 1073741824 0 6 0 1075576832 147456 2048 4194304 33554432 4 0 2 0 1090519040 4352 1073741824 0 0 4224 0 4194304
is_linear=0
shrinkage=0.1


Tree=17
num_leaves=31
num_cat=25
split_feature=1 1 0 0 5 0 1 0 0 1 0 1 0 0 6 0 0 0 1 0 5 1 0 0 2 6 0 0 5 1
split_gain=1684.49 1002.44 361.769 267.026 253.694 231.787 220.531 207.468 208.801 168.113 159.791 154.794 140.003 124.161 122.129 114.396 107.723 102.886 89.5147 89.2561 84.9473 151.369 83.1459 82.1954 79.7576 78.8774 76.8056 74.9058 72.8722 70.2394
threshold=0 1 2 3 0.99950000643730175 4 5 6 7 8 9 10 11 12 22.015000343322757 13 14 15 16 17 0.6172962784767152 18 19 20 21 19.744999885559086 22 23 0.66449999809265148 24
decision_type=9 9 9 9 2 9 9 9 9 9 9 9 9 9 2 9 9 9 9 9 2 9 9 9 9 2 9 9 2 9
left_child=5 2 -2 -4 6 25 23 -5 -9 26 -10 16 -12 -14 -7 -11 -6 -16 -13 -15 21 -17 -21 -3 -18 -1 -8 -24 -29 -20
right_child=1 4 3 7 11 14 9 8 10 15 12 18 13 19 17 20 24 -19 29 22 -22 -23 27 -25 -26 -27 -28 28 -30 -31
leaf_value=0.0062279783442119431 0.0094179887095888117 0.006154982627842775 0.0079737711701956173 0.0072702108236427964 0.0048815975932906463 0.0085901854944803995 0.00604912109673909 0.0066008369053974269 0.005998077317002584 0.0010892493625195702 0.0053718813302524983 -0.002817213049606858 0.0048384106870482148 0.0043095169317576799 0.011794817303572456 0.0051864714763385509 0.0010485203226218685 0.026829368863104299 7.9490211542510667e-05 0.0039013035534288297 -0.00035009698171257591 0.000203647049404539 -0.0041922563540136553 0.0014993625746340875 -0.00064330579384085128 0.040297716801632417 0.0010092908061721357 0.0030863238329101633 2.6876367803196684e-05 -0.00079532656221662033
leaf_weight=757 68308 40003 71332 64515 53149 11027 31125 75580 66373 666837 68696 202376 69874 58668 7003 75349 609184 13302 1043937 61133 7490904 319218 38978 726723 513548 6641 1051477 84596 976735 7595984
leaf_count=757 68308 40003 71332 64515 53149 11027 31125 75580 66373 666837 68696 202376 69874 58668 7003 75349 609184 13302 1043937 61133 7490904 319218 38978 726723 513548 6641 1051477 84596 976735 7595984
internal_value=-4.84814e-06 -4.13285e-05 0.00228827 0.00199061 -0.00023582 0.0208293 0.000110097 0.00171788 0.00147913 -1.97954e-05 0.00120744 -0.000594978 0.000973374 0.000739099 0.0170568 -0.000168413 0.000482934 0.0216631 -0.000738323 0.000504299 -0.000274769 0.00115534 0.00031205 0.00174234 0.000274665 0.0367618 0.00115424 0.000112598 0.000270735 -0.000689625
internal_weight=2.21633e+07 2.21246e+07 1.70479e+06 1.63648e+06 2.04198e+07 38730 1.04016e+07 1.56515e+06 1.50063e+06 9.63491e+06 1.42505e+06 1.00182e+07 1.35868e+06 1.28998e+06 31332 8.55231e+06 1.17588e+06 20305 8.8423e+06 1.22011e+06 7.88547e+06 394567 1.16144e+06 766726 1.12273e+06 7398 1.0826e+06 1.10031e+06 1.06133e+06 8.63992e+06
internal_count=22163332 22124602 1704788 1636480 20419814 38730 10401636 1565148 1500633 9634910 1425053 10018178 1358680 1289984 31332 8552308 1175881 20305 8842297 1220110 7885471 394567 1161442 766726 1122732 7398 1082602 1100309 1061331 8639921
cat_boundaries=0 9 33 60 88 117 144 172 200 227 255 283 309 336 363 389 417 444 470 497 525 553 554 581 609 636
cat_threshold=0 0 0 0 0 0 0 0 2048 1073741840 0 64 1084227584 536887312 2147483648 8388608 0 16777216 538972160 0 0 536870912 0 0 0 301989888 4 8192 0 0 1581056 0 9437184 262146 33579520 1028 0 67637248 138412032 524288 67110950 0 8388608 8388608 0 0 0 8388608 8192 0 2048 0 0 2147483648 1073741824 0 16384 131088 4325376 2048 0 0 134217728 4194304 10616840 268435456 139460864 0 268436512 0 0 67108896 0 67108864 16384 2 524288 8396800 1024 2621440 4194304 134217728 262144 0 8192 64 0 2099200 8390656 2147483648 0 4 0 0 0 0 0 0 320 8720 32 0 134283264 301993984 1073872896 16777220 0 16777216 1677723648 33280 0 0 0 0 3145728 32774 1 4718602 576 67108864 138412096 65536 268435520 0 24 0 1073741840 0 134217728 0 0 524290 2 536872960 67108864 1064960 8 16416 0 0 0 268435456 2147483648 4 2048 258 2049 2048 1074856068 0 1073741840 10493952 128 16777216 0 524288 134217728 4 0 1073742336 0 1024 0 135266304 1 8388672 0 0 2147483648 4096 0 256 1048576 0 8192 0 512 10493953 1028 2147483713 512 536576 1 16384 0 33024 603979776 0 2416967680 1179648 1179648 0 32 0 1 0 0 0 0 67108864 4 0 4096 256 32768 33554432 32832 4259845 0 67108864 8396800 0 4 256 32 64 1056 32 16 2048 0 4194304 0 2162704 2097280 0 8201 0 0 2148532224 0 16779264 0 8388642 33685504 0 1048576 32 4096 32785 528 268435456 1024 2097185 2 8388608 0 136 1 1024 0 4194304 32 0 12288 524288 4096 268435584 17039424 32770 1073742400 524800 13 0 1342177344 1024 0 0 2147483648 0 33570818 257 0 8388608 2048 67108864 0 0 0 0 1024 0 1 536871424 8388608 537001984 268435456 268435712 1024 135168 1024 8192 16384 0 3758129152 1048576 268714048 4096 0 33554432 268439552 0 8192 256 2097152 67108864 0 0 32768 268435468 268435456 0 131072 0 536870920 16777216 512 0 2097344 67117056 0 2361408 33554432 52428800 131072 545259520 0 67108864 1073741824 0 16777216 33280 0 0 0 16809984 262144 25872 0 4194304 67239936 4194304 1048592 2048 128 0 8388608 536870912 33556480 32768 0 8192 0 15360 0 0 2151677952 0 0 0 8208 4325408 2048 262144 11264 1024 33554432 75628544 4194304 1572884 67110944 128 25166080 8388608 0 0 0 8388608 16785408 0 11264 0 512 0 134217728 0 0 0 4325376 1024 1310720 16875536 0 32 0 0 0 4096 33554436 2148008966 0 2147483648 69632 0 0 69632 1073741824 0 1538 8388608 0 0 2 0 0 5 269484033 8 2147483648 32 256 67117120 50331648 0 1179776 2147483648 524288 0 32768 0 34078720 524288 1073741888 16777216 0 0 0 0 0 16384 32768 805306369 1073741828 838860801 134217729 2147484672 8388864 8388612 64 65792 512 0 257 0 0 8 8388608 2098176 4 8388632 0 134217728 26 0 0 536870912 16 2080 0 671088640 0 8388608 0 0 64 0 0 0 268439808 0 2147483652 262272 0 34082008 1048832 1048576 16777216 528384 524288 1048576 0 0 0 0 16842752 4 117440512 131072 2048 0 33554560 2181038080 0 16448 671121664 746586116 0 0 0 4194304 2048 134217856 134250496 262208 536870912 2147483648 2147483648 0 131072 0 16777216 2048 0 0 524288 262152 81920 2048 4194304 8520200 8388609 4718608 2147747872 128 0 0 0 0 32768 0 0 2097152 1024 0 0 0 134217793 0 16384 8208 4096 2048 2048 1029 2450522112 8210 2052 0 276824064 4195328 0 8224 1048704 1073741824 67108864 4 0 0 0 0 2148007936 3072 0 0 0 1610743809 67108880 0 536870912 0 2048 0 4096 271056896 2097152 0 32 0 0 16777216 0 2 0 0 536870920 0 536870912 69632 0 8192 536871936 0 268443648 4194500 196608 269549568 2097152 134221832 1048576 1 262144 0 201326592 0 0 0 81952 0 167927812 2147483648 537133056 12548 2048 1024 512 2080 0 4 8 81920 0 256 8192 0 0 4
is_linear=0
shrinkage=0.1


Tree=18
num_leaves=31
num_cat=20
split_feature=1 4 1 4 10 4 1 3 4 3 4 4 4 1 1 4 1 6 5 1 6 1 1 6 6 7 5 11 6 3
split_gain=1470.71 1259.1 1538.2 984.953 367.822 323.746 320.523 268.576 255.685 237.885 396.463 233.434 196.63 191.619 185.062 180.602 175.494 153.474 135.594 154.922 135.068 129.35 123.734 193.086 111.346 108.587 106.983 113.465 152.033 114.362
threshold=0 1 2 3 1.0000000180025095e-35 4 5 6 7 8 9 10 11 12 13 14 15 24.204999923706058 0.71250000596046459 16 18.244999885559086 17 18 21.654999732971195 20.195000648498539 59.98500061035157 0.89750000834465038 1.0000000180025095e-35 20.525000572204593 19
decision_type=9 1 9 1 2 1 9 1 1 1 1 1 1 9 9 1 9 2 2 9 2 9 9 2 2 2 2 2 2 1
left_child=3 2 4 9 14 6 -3 12 -5 10 24 16 13 -4 -2 -16 17 20 19 -9 -6 -13 23 -11 -1 -22 27 29 -29 -27
right_child=1 5 7 8 11 -7 -8 18 -10 22 -12 21 -14 -15 15 -17 -18 -19 -20 -21 25 -23 -24 -25 -26 26 -28 28 -30 -31
leaf_value=0.018341749340808022 0.0073128938662798855 0.001928505772176215 0.009037315158049352 0.0097476339837989142 0.009855064050548883 -0.00098536729288630095 -0.00029223648648706328 0.011128855576466451 -0.0093924987348424291 0.011430366973363955 0.015593827958155785 0.0095077927643860347 0.00090004807704196967 0.0025498757538699262 0.005769303779576903 0.00071123251863976808 0.0098908204095272956 0.0081619782245166868 3.0174637178259062e-05 0.0015989810755060675 -0.0031451782842437585 0.0028330425830440098 0.013534942413634324 0.03760310704909739 0.068332711849813974 0.064696521616142477 0.020705002830017988 0.041327917028822686 -0.003252482942473232 0.033560232978091943
leaf_weight=500 118724 731126 49644 21220 5138 8271818 5851248 18005 10389 4079 2948 54189 1309010 548749 114310 184577 75982 9003 4366695 321593 1004 62592 7783 9123 4091 2234 5950 1933 1266 2696
leaf_count=500 118724 731126 49644 21220 5138 8271818 5851248 18005 10389 4079 2948 54189 1309010 548749 114310 184577 75982 9003 4366695 321593 1004 62592 7783 9123 4091 2234 5950 1933 1266 2696
internal_value=9.2626e-07 -4.15578e-05 0.00103842 0.0156173 0.0057212 -0.000568912 -4.55688e-05 0.000585553 0.00345582 0.0290882 0.0443564 0.00901047 0.00158654 0.00308823 0.00397288 0.00264583 0.0124272 0.0190161 0.000179862 0.00210462 0.0238581 0.00593083 0.0235844 0.0294942 0.0627516 0.0286282 0.030894 0.0383519 0.0236853 0.0478688
internal_weight=2.21676e+07 2.21075e+07 7.25329e+06 60133 639598 1.48542e+07 6.58237e+06 6.6137e+06 31609 28524 7539 221987 1.9074e+06 598393 417611 298887 105206 29224 4.70629e+06 339598 20221 116781 20985 13202 4591 15083 14079 8129 3199 4930
internal_count=22167619 22107486 7253294 60133 639598 14854192 6582374 6613696 31609 28524 7539 221987 1907403 598393 417611 298887 105206 29224 4706293 339598 20221 116781 20985 13202 4591 15083 14079 8129 3199 4930
cat_boundaries=0 24 25 49 50 51 78 79 80 81 82 83 84 109 131 132 142 169 191 200 201
cat_threshold=0 0 0 0 0 0 0 0 2048 0 0 0 0 0 0 0 268435456 0 8192 0 0 0 0 1048576 233216 16 0 64 2097216 16400 2147483648 8388608 0 16777216 538972160 0 0 0 0 0 0 33554433 4 16 0 0 1581056 0 8388608 1298176 1863808 1073741850 0 64 144703488 49152 2181038080 8388672 0 16777216 1142951952 8388608 536870912 0 33554432 0 0 0 4 0 4096 0 1581056 0 0 2147483648 0 524300 96 7090368 96 3840 1792 1536 524288 0 268436096 1078263808 32768 64 537395200 4194312 65536 1140850688 0 0 536871168 0 2 64 526848 0 1064960 8 67125248 0 256 0 268435584 0 0 64 2097152 0 0 0 0 0 4096 0 0 0 0 0 0 0 0 0 0 0 1048576 229376 16 0 0 0 0 0 0 0 0 4096 2 8388672 0 134217984 0 64 536870912 4194320 268435456 4 2147483648 0 0 525016 1048578 0 536870912 524288 16777216 1048577 16416 0 2097152 16 0 2148007936 67108864 16 0 64 2097216 0 0 0 0 16777216 2097152 0 0 0 0 0 0 0 0 0 0 0 1572864 0 0 0 0 0 0 0 0 2048 68
is_linear=0
shrinkage=0.1


Tree=19
num_leaves=31
num_cat=23
split_feature=4 5 3 4 0 4 5 5 0 2 0 0 0 4 0 4 0 5 5 0 10 4 4 0 5 4 0 0 2 0
split_gain=1127.72 1686.23 355.981 309.18 260.767 240.764 233.958 161.612 125.896 120.405 119.638 113.119 103.949 101.907 97.4292 86.51 89.29 85.2864 82.076 79.2904 79.1199 170.702 78.6703 74.3016 69.4281 58.4854 56.6997 53.817 52.7434 52.6008
threshold=0 1.0000000180025095e-35 1 2 3 4 0.50049999356269848 0.71250000596046459 5 6 7 8 9 10 11 12 13 0.8820750117301942 0.86550000309944164 14 1.0000000180025095e-35 15 16 17 1.0000000180025095e-35 18 19 20 21 22
decision_type=1 2 1 1 9 1 2 2 9 9 9 9 9 1 9 1 9 2 2 9 2 1 1 9 2 1 9 9 9 9
left_child=1 4 5 24 20 12 11 27 -6 15 -9 25 -3 -11 -10 16 -8 -14 -7 -16 -1 -22 -12 -24 -2 -5 -25 -4 -19 -13
right_child=3 2 7 6 8 18 9 10 14 13 22 29 17 -15 19 -17 -18 28 -20 -21 21 -23 23 26 -26 -27 -28 -29 -30 -31
leaf_value=0.04258511831053996 -0.0096849922316804317 0.009468677053947841 0.0075947207196835178 0.040260526616718084 0.039855112921904155 0.0025298160063031219 0.0018380733276776836 0.0022883094339913685 0.033463185049105004 -0.001404694039727172 0.0012924672095590453 -0.0065330227314013296 0.005023820289181205 -0.00028436548392552684 0.026127503330815066 -0.00034095335235167579 0.00027990323787263714 0.0034915625563678057 0.00084302100343912909 0.0087620287373193131 0.10725223297997424 0.02982944361854821 0.0016322640223166041 -0.0030473929562508089 -0.001061717220384439 0.013649340117090212 -2.3202899580306252e-05 0.0021963917407186186 0.0012274530484717662 0.0053884698137825378
leaf_weight=2328 9352 29068 19455 1238 3826 399460 435719 293674 3781 1080738 579425 3931 205316 3264171 4081 1981295 2357981 244608 1038145 7466 673 534 273890 63080 5685324 2560 3574719 361850 177650 61631
leaf_count=2328 9352 29068 19455 1238 3826 399460 435719 293674 3781 1080738 579425 3931 205316 3264171 4081 1981295 2357981 244608 1038145 7466 673 534 273890 63080 5685324 2560 3574719 361850 177650 61631
internal_value=2.02457e-06 0.00102167 0.000936614 -0.000496912 0.0282407 0.00203638 -0.000138121 0.000490782 0.023593 -0.000182125 0.000332891 0.00564775 0.00362288 -0.000563035 0.0195105 0.000164477 0.000522929 0.00335196 0.00131171 0.0149167 0.053207 0.0741346 0.000205021 4.39382e-05 -0.00107588 0.0224065 -7.56511e-05 0.00247208 0.00253913 0.00467279
internal_weight=2.2167e+07 7.28303e+06 7.26034e+06 1.48839e+07 22689 2.09425e+06 9.18926e+06 5.16609e+06 19154 9.1199e+06 4.78479e+06 69360 656642 4.34491e+06 15328 4.775e+06 2.7937e+06 627574 1.4376e+06 11547 3535 1207 4.49111e+06 3.91169e+06 5.69468e+06 3798 3.6378e+06 381305 422258 65562
internal_count=22166969 7283029 7260340 14883940 22689 2094247 9189264 5166093 19154 9119904 4784788 69360 656642 4344909 15328 4774995 2793700 627574 1437605 11547 3535 1207 4491114 3911689 5694676 3798 3637799 381305 422258 65562
